solver_type L2R_L2LOSS_SVC_DUAL
nr_class 6
label 1 2 5 4 3 6
nr_feature 89923
bias -1
w
0.08760233165633285 -0.08420272411239463 -0.09171013958206518 0.008255241765138491 -0.02472211579260338 0.02437523377464257 
-0.02495596313108317 0.02949932857336969 -0.02047881507311264 -0.03052486418886779 -0.07561925645604566 0.03593513598411742 
0.1298081070962435 -0.01729633086289901 -0.02293112116986925 -0.09165217539521991 0.02655119736185743 -0.01935035915484587 
0.08702944109502582 -0.07808939081346941 -0.0137552750761241 -0.02637954452379928 -0.02478827694847272 0 
0.07762165343620056 -0.009987299301976881 -0.02548677608901843 2.168404344971009e-18 -0.02998809349742195 0 
-0.02754334881788022 -0.0171428790830579 0.02828047851596987 -0.02304531471339466 -0.0194586759171597 -0.01413727076268119 
0.07834580157806463 -0.06817733508264243 -0.05039826029818879 -0.09900738329197274 -0.03998037201683659 -0.07502245935753089 
0.01449044809276198 -0.002916263003408254 -0.005150223545383448 0 -0.02155987432954363 0 
0.01339719534558636 -0.03032831656498198 -0.01033884369069457 -0.02153032788099132 0.06910950411631463 -0.0003789285649389957 
0 0 0 0 0 0 
0.04215716226316012 -0.01980109624511166 -0.00896158780534388 -0.01728991060604769 -0.05503011372152505 -0.0321022255562948 
0.04215716226316012 -0.01980109624511166 -0.00896158780534388 -0.01728991060604769 -0.05503011372152505 -0.0321022255562948 
0.001988119296193013 -0.005906365630056048 0 0 0 0 
0 0 0 0 0 0 
0.2228188581049488 -0.5810300130862213 -0.2629959722543703 0.07106372665477959 -0.2859562663695916 -0.3299765744568282 
0.01052576087580748 -0.2269353893298443 -0.202014310807306 -0.2285667793660243 -0.2932579476386497 -0.3085354248399099 
0.4882929629162086 0.01054441856064595 -0.3379980249554672 -0.4077260689255649 -0.3035074007388184 -0.7810547130127303 
0.05254160008527542 -0.06471748508268904 -0.2635945378800163 -0.4373981487808474 -0.1431441403103648 -0.09423620367903859 
0.04563667374675195 -0.0231178184796945 -0.01279385112490917 0 -0.006914464348834152 0.009709535788286523 
0.0373342126698938 -0.1418176320877672 0.1083840948825551 -0.001330082262419137 -0.02122917106781927 0.008827562948818471 
0.03114294104081237 -0.02721083061370391 0 0 -0.02546698821824729 -0.002708273478657481 
0.1051245845366459 -0.0751637641952507 0 0 -0.01961291013386649 0 
0.001988119296193013 -0.005906365630056048 0 0 0 0 
0.04215716226316015 -0.01980109624511166 0.001962507433919925 -0.01728991060604769 -0.05503011372152505 -0.0321022255562948 
0.1855686677266558 -0.1950061218325063 -0.04605705218658823 -0.04222201929184431 -0.07409591988088045 -0.005321602660111476 
0.02114345461906562 -0.002916263003408254 -0.005150223545383452 0 -0.01271900714989013 0 
-0.02768202875987203 -0.01089869373535108 -0.004361243281634908 0 0.04944878395759022 0 
-0.1479629196564946 -0.06178456374608259 0.02304603736648848 -0.01824194143078719 -0.08831511981010072 0.4065899032037836 
0.03792018371419004 -0.02517431400527178 0 0 0 0 
0.04758099413550003 -0.02517431400527178 -0.000721019963384954 0 -0.001941449010776182 4.336808689942018e-19 
0.1360775354228606 -0.09082047110646187 -0.0508600887734541 -0.08607722801297842 0.008571175992083315 -0.2956600457595198 
0.002512935695855876 -0.003215294196507938 -0.01561303613213163 -0.001595855704948289 0 0 
0.2499021180126362 -0.04508043463843064 -0.0216838187113696 -0.05950808839223462 -0.01242096647504386 -0.1526582386999326 
-0.1227445601865556 0.1278797315159955 -0.01322482400453502 -0.001595855704948291 -1.734723475976807e-18 -0.0009597405440145537 
0 0 0 0 0 0 
0.03792018371419004 -0.02517431400527178 0 0 0 0 
0.004547729248579293 0 0 -0.00159585570494829 0 0 
0.004547729248579293 0 0 -0.00159585570494829 0 0 
0.004547729248579293 0 0 -0.00159585570494829 0 0 
0.03792018371419004 -0.02517431400527178 0 0 0 0 
0.04522358549176331 -0.02517431400527178 -0.000721019963384954 0 0 -2.168404344971009e-19 
0.0008174094956496448 0 0 -0.00159585570494829 -0.02185373269789372 0 
0 0 0 0 0 0 
0 0 0 0 0 0 
0.004391378402817263 -0.02384910705331915 -0.0144002255323686 2.168404344971009e-19 -0.006099087807227978 0 
0 0 0 0 0 0 
0 0 0 0 0 0 
0.002512935695855876 0 -0.01322482400453502 -0.00159585570494829 0 0 
0.002512935695855876 0 -0.01322482400453502 -0.00159585570494829 0 0 
0.05408575633032688 -0.02430216857221267 -0.01322482400453502 -0.00159585570494829 0 0 
0.07615894798155745 -0.223000435887998 0.01606623149548015 -0.05459848731374082 0.0002762242572226824 -0.09157029080592202 
0.002512935695855876 0 -0.01322482400453502 -0.00159585570494829 0 0 
0.007105634887960876 0 -0.01322482400453502 -0.00159585570494829 -0.00833090994420321 0 
0.2663148946039806 -0.06241356591783866 -0.03593045212719736 -1.772576261917995e-06 -0.207510046214157 0.006783380185461215 
-0.04271460857758664 -0.1159570174771656 0.02711835881330302 0.1667386380328653 -0.09484825427396398 -0.131245342829249 
0.002512935695855876 0 -0.01322482400453502 -0.00159585570494829 0 0 
0.1145095416423218 -0.009966613656573541 -0.02204693696621806 -0.050536729463874 -0.009714153063373848 0 
0.1695428661657693 -0.05678230153220264 -0.05075716731185588 -0.01664608572583885 -0.03205623283939577 0.07604001796154025 
0.1461054866638482 -0.04288639512307364 -0.05250881802776967 -0.01628308583311924 -0.05707712202259757 0.07604001796154025 
0 0 0 0 0 0 
0 0 0 0 0 0 
0.02799482876806871 0.06082979990211761 -0.02624605250098375 -8.673617379884035e-19 -0.04050712317416403 0 
0 0 0 0 0 0 
0 0 0 0 0 0 
-0.03380794956604702 0.05593170619519173 0.008394690213788504 0.03264979158820919 -0.05984894061898966 0.03409189839301802 
0 0 0 0 0 0 
0 0 0 0 0 0 
0.01919941752241144 0 0 -0.002959596041499787 -0.02057759540944541 0 
0.01163034592553166 0.03405381006876183 -0.04176692697822199 0.008599965598194986 -0.06944392260993729 -4.336808689942018e-19 
0 0 0 0 0 0 
0.04117458576015533 -0.03161545690351245 -0.01330283743523648 0.04339898896162868 -0.0272573582785555 0 
0 0 0 0 0 0 
0.001222358762981493 -0.001214147174353569 0 0.003518533115761867 -0.001145939811903766 -0.008405884363879944 
0 0 0 0 0 0 
-0.4513822140988375 0.3983661813193362 0.06753854665383685 -0.1895903145733639 -0.2362995856668887 -0.05025196126996499 
0.1505870817471205 0.1127533578278101 -0.1424906589224099 -0.2603258969645541 -0.1686050149844364 -0.06689367050149907 
-0.01771630805434159 0.02017581261393692 -0.005689461469400818 -0.005805777654786673 1.734723475976807e-18 -0.03705828084121605 
0.01727886614829328 0.02871062284874784 -0.01543551578004936 -0.01319858165646208 -0.02860428095882251 0.06914758937044704 
0.08486072810431156 -0.003991406579670376 -0.03147631799960705 -0.008053219614741652 -0.03407057160334002 0 
-0.02754077547811339 -0.04132013197616067 0.07017383115190616 0.03265709615405588 -0.01616377605361092 0.01272194178619187 
0.05382492266518928 0.004317798103643269 -0.06088553033441359 -0.01249015535525425 -0.06331865880848191 -0.0145390835744483 
-0.003265849151147237 -0.04389995817521192 -0.004424996112390439 -0.06977423178667308 0.03362037457751028 -0.1661589930957001 
0.273048042491651 -0.153397740930365 -0.007474854922646235 -0.02025541903337304 -0.02521633676646126 0 
-0.004883714668663039 -0.02847856514162539 -0.02981484510332912 0.005261586263567018 0.01361945465447092 -0.01674236625946933 
0.02668395394362544 -0.01282193907401393 -0.01685754571181722 -0.002102778966466171 -0.02361590948106102 0 
-0.008542449346514771 0.01194821316369951 0 0 0 0 
-0.4023276901420939 0.2863555017747483 -0.06283957866316749 0.01152120726312975 -0.04133978993018507 0.0917538516628016 
-0.4023276901420939 0.2863555017747483 -0.06283957866316749 0.01152120726312975 -0.04133978993018507 0.0917538516628016 
-0.4693606570733434 0.2688299753105056 -0.1907864790306364 -0.6761219048871498 -0.2530757918441049 -0.1161400910771845 
-0.257067559844181 -0.08526464844586641 -0.2517681404777046 -0.3764913988663445 -0.2457741105750506 -0.1375812406941058 
-0.2028789350372232 0.115482688401961 -0.07207101775992344 -0.1115288636615119 -0.04253296492968781 0.1555955262314711 
-0.01479457957550176 0.01823587532209243 -0.005689461469400818 -0.005805777654786675 0 -0.03664500659275818 
-0.008542449346514771 0.01194821316369951 0 0 0 0 
-0.008542449346514769 0.02351735096389135 0 0 0 0 
-0.01714661240810965 -0.1342143414646327 0.08848167886750315 -0.08702090910580738 0.1439050671958401 -0.02684153236189987 
0.06899763717722132 0.02438247917570838 -0.01289939247970251 -0.02100701440312272 -0.04521295605007023 -0.0145390835744483 
-0.1008302979893182 0.05345238231710056 0.07562163602274512 -0.03882998710337872 0.01325390531254429 -8.673617379884035e-19 
0.03520581544762514 -0.06900930827948963 0.0856015610662765 -0.001165346286381278 -0.05339182710460157 -0.02009591833483167 
-0.008542449346514771 0.03021933237113962 0 0 0 0 
0.1100441856463804 0.006642040195875542 -0.01246884957505971 -0.04356737074980201 0.02623316725697208 -0.02046962801888841 
-0.02399881070124757 -0.05306036136115576 0.06237582855816633 -0.09284821734684216 -0.0274511599445943 -0.01543843355951371 
0.02993898958645702 0.02770182394720362 -0.001627686724301016 0 -0.004259025572603744 0 
-0.008542449346514771 0.03021933237113962 0 0 0 0 
0.1020018594439863 0.006810746065359327 -0.02334412992052971 -0.01666962975638436 -0.01556847366275869 8.673617379884035e-19 
0.004702039973163447 -0.1062174722794157 -0.02242495017813202 -0.0214162123134008 -0.05234539142855191 0.1080988752448097 
0 0 0 0 0 0 
0 0 0 0 0 0 
0.03837513379981081 0.02511168362557857 -0.06656631862535006 -0.03153928408838843 -0.02454604736443089 0 
-0.04771737081291565 -0.1138937398361594 -0.04365198845973605 -0.04012711670280773 0.1369125384858665 -0.02959618068520681 
0.07421090842047606 0 -0.04954537482236929 0 -0.04284345483436248 -0.001703283228106234 
0 0 0 0 0 0 
0.07744928363008148 -0.01910876499990498 -0.01262134418611657 -0.02445549238918909 0.02187307047099185 8.673617379884035e-19 
-0.04202326260180072 0.07569230020301955 -0.0566665273270994 -0.07851994214039172 0.03493440857798868 0.03252693449807467 
0.0834794871907565 -0.00543639117881487 -0.002386329667218708 -0.002459526257630838 -0.05029340005063231 -0.02768350227051627 
0.03840523315822697 -0.003818561607782975 0 0 -0.046427986104046 0 
0.04825226227902308 -0.006420866385919861 -0.002813880941933828 -0.01056450429428276 -0.02959684710922955 -0.004050963460849906 
0 0 0 0 0 0 
0.1215398744864045 -0.02217672320624841 -0.02276470429493577 -0.01193294162810156 -0.1473275087285153 0 
0.1215398744864045 -0.02217672320624841 -0.02276470429493577 -0.01193294162810156 -0.1473275087285153 0 
0.002882431594904476 0 2.168404344971009e-19 0 0 0 
0 0 0 0 0 0 
0 0 0 0 0 0 
0.05805750732004215 -0.02982281963058893 -0.06713848891169243 0.07328272992890136 -0.0387680207851181 -0.02439451028743892 
0 0 0 0 0 0 
0 0 0 0 0 0 
0.002882431594904476 0 2.168404344971009e-19 0 0 0 
0.1215398744864045 -0.02217672320624841 -0.02276470429493577 -0.01193294162810156 -0.1473275087285153 0 
0.03898387300059717 0 -0.0486994934543362 0 -0.01054303039855303 0 
0 0 0 0 0 0 
0.02932425915527761 -0.008574581330217667 -0.008581319798883545 -0.01653317629012132 -0.01149099567092391 8.673617379884035e-19 
-0.04717160777672066 -0.2200437525859065 0.2339075447958367 -0.1076724090956249 0.04846318144303998 -0.07089094904048589 
0.04165866931334906 -0.03448247704690506 -0.002996845107776609 0 -0.03122712626903208 -0.01773575317777522 
0 0 0 0 0 -0.003009208073914465 
0 0 0 0 0 0 
0 0 0 0 0 -0.004050963460849907 
-0.003076323029662558 -0.03545684775498561 -0.02465286729436151 -0.008839619472631037 0.02938589555090132 0 
-0.005332621074411982 0.005188908739575787 0.05721857719676695 -0.003901776023841476 -0.07008348757683397 0 
0.09976243429894704 -0.05697041430320837 3.794707603699266e-19 -0.0001441807822331552 -0.08303322846194471 -1.734723475976807e-18 
0.1474808967910204 -0.06252365330622971 -0.05364465065351742 -0.06600680164859808 -0.0787346422645058 -0.05954857211991801 
-0.7421548190607543 0.7024425834823416 -0.05500431714987412 -0.01739320069006906 -0.03230757062201795 -0.0245126479136267 
0.00598605648901551 0 0 0 0 0 
0 0 -0.009455224889951565 0 0 0 
0 0 -0.009455224889951565 0 0 0 
3.252606517456513e-19 0 0 0 0 0 
0.1491048665639873 -0.1016175139455451 -0.1023354951082268 -0.419018837075633 -0.2920856590209066 -0.3518804618549777 
0 0 0 0 0 0 
0 0 -0.009455224889951565 0 0 0 
0.02612403254679587 -0.02419901581080076 0 0 -0.01675026596585024 0 
-0.2270318250721355 0.3263514568437967 -0.06017771107529912 -0.05211824754844299 -0.081537065259821 -0.01397102729413843 
-0.02574785221364865 0.06658098125749796 -0.01275376439054073 -0.003535931840541203 -0.01124942963147153 0 
-0.3091647056504511 0.2249739204342101 -0.009783798886867525 -0.002743444813244727 -0.0007649865478940484 0 
-0.01597352021256255 0 0 0 0 0.004437180140618623 
0.1618885536315372 0.03663362187650411 -0.01550591482752755 -0.1340029696589905 -0.02624093740241393 -0.05064151344931744 
0 0 0 0 0 0 
0.02900915742654318 0.06628161174202986 -0.006997086583751343 -0.02196043865281557 -0.02981582314670839 -0.04647511922324173 
0.01900596566837542 0.07099791732800755 -0.1466236126312762 -0.1654963000736936 0.00903092466302954 0.2243103343831705 
0.0004032693966157766 0.05038135754321765 -0.007851889468091608 -0.007235198574982645 -0.05743964513101329 -0.005566867736661302 
0.02603728877622213 -0.03346296444598563 -0.008341099651934985 -0.02088412009193324 0.0841591534225633 -0.006789328682303804 
0.1794585287983481 -0.082908395046543 -0.0207581090790709 -0.04900370539793081 -0.1991924730693244 0 
0.03027767304684031 -0.1437161399310925 -0.005064074385946915 0.06446517438808072 -0.0158214745053448 -0.1008461143699937 
0.006019749872289263 0 0 0 -0.001641854262240703 0 
0 0 0 0 0 0 
0 0 0 0 0 0 
-0.02213182785385903 -0.08555840003328191 -0.06571630380363819 0.1160100475811643 0.01647873265433918 -0.08315091457222444 
0.05778569857882566 -0.008530148674645468 -0.002783870987656163 -0.03014320370112528 0.03090472806517091 -0.007653825208333824 
0 0 0 0 0 0 
0.02874058803576711 -0.1040425469880724 -0.03845068122318178 -0.08159502753502776 -0.005707680248383847 0.1142367972671025 
0.02874058803576711 -0.1040425469880724 -0.03845068122318178 -0.08159502753502776 -0.005707680248383847 0.1142367972671025 
0.002664978921075353 -0.02406854314281599 -0.001107887944642764 -0.003471048099922266 -0.000176605412042583 -2.710505431213761e-20 
0 0 0 0 0 0 
0 0 0 0 0 0 
-0.004542698194598385 0.0003944224380097768 -0.004201078019346298 -0.004098026186954452 0 -0.001698824842748858 
0 0 0 0 0 0 
0.002664978921075353 -0.02406854314281599 -0.001107887944642764 -0.003471048099922266 -0.000176605412042583 -2.710505431213761e-20 
0.02874058803576711 -0.1040425469880724 -0.03845068122318178 -0.08159502753502776 -0.005707680248383847 0.1142367972671025 
-0.03810088891374517 0.0254477189364486 -0.007851889468091604 0 -0.003420269131990666 0 
0.03605033223662048 0.0186199578600587 0 0 0 0 
0.04498372870549838 -0.0301373666071677 0 -0.0235467695916564 0 0 
0.02897337123558597 0.01017443705582318 -0.009011017105987822 0.03139717755538069 -0.02970381768653435 0.01220498983670159 
0 0 0 0 0 0 
0.1416535036272829 0.001537204471240688 -0.01436166056387748 -0.06937950710746735 -0.1308082345763854 -0.02472894676089431 
0 0 0 0 0 0 
0 0 0 0 0 0 
-0.04646834402691331 0.07024775627198795 -0.03764210542399237 0.007368408592682998 -0.01267482687065034 1.084202172485504e-19 
0 0 0 0 0 0 
0 0 0 0 0 0 
0 0 0 0 0 0 
0 0 0 0 0 0 
0 0 0 0 0 0 
-4.336808689942018e-19 -0.003215294196507938 -0.008071497320975504 0 0 0 
0.01826166920096895 0 -1.084202172485504e-19 0 0.001517101933086573 -0.009957250725855699 
0.02347814095421116 0.01855166375873371 2.303929616531697e-19 0 -0.0233988302836939 0 
0 0 0 0 0 0 
0 0 0 0 0 0 
-0.01090903318930946 -0.006624172556026576 0.03626203850715731 -0.03781413914619323 -0.02647364839836444 0 
-0.06729265547111551 0 0.01924891000881731 0 0 0 
0.1996443544161617 -0.08256106577959609 -0.01831929205308256 -0.1251020142002822 -0.1524011454567057 -0.005822019279121947 
-0.05022175280866072 0.005655820464186665 0.05585862556680397 0.01032785371757676 -0.0294850832933547 5.854691731421724e-18 
-0.1773959469996189 0.01283696817609668 0.2339166168315487 -0.0002297521871578014 -0.01457495686432689 -0.02966145117898526 
-0.4513272652070115 -0.1394601653904293 0.387010582902885 -0.01150389893524959 -0.0164794804599491 -0.02341169113981676 
-0.06729265547111551 0 0.01924891000881731 0 0 0 
-0.06729265547111551 0 0.01924891000881731 0 0 0 
-0.06729265547111551 0 0.01924891000881731 0 0 0 
-0.06729265547111551 0 0.01924891000881731 0 0 0 
-0.06729265547111551 0 0.01924891000881731 0 0 0 
-0.06729265547111551 0 0.01924891000881731 0 0 0 
-0.05204848510867621 -0.002897932674502656 0.01839036436784706 -0.008303941574379921 0.0135861810815726 -0.004383629156000646 
0.1349799821081712 -0.2988866620365837 0.08318364831050425 0.01793903873554104 -0.03330389407898255 5.854691731421724e-18 
-0.2673250050374337 -0.03369060519010292 0.3279280890760992 0 -0.01336266405071387 0 
-0.6236161401006612 -0.2834808255205784 0.5503699431067524 0 0 0 
0.002674163783095221 0.09841050931380564 -0.009909960567216863 -0.04935795116119143 -0.02733559999944803 -0.009511599761740716 
-0.1566590940311101 -0.05644938821738422 0.1647422227120337 -0.02519879764736484 0.06783002969418671 6.938893903907228e-18 
0.01576827518616851 -0.02666338934150126 -0.02421420020273533 -0.01031474990862122 0.08647089457287839 0 
-0.00482078093909216 -0.02019466744252946 -0.02097114183774208 -0.1161986686548656 0.04771288829754718 -0.05980166833222 
0.007027661612128503 0 0 0 -0.003245903584449368 0 
0.09227281381689574 -0.02688834534645289 4.336808689942018e-19 -0.01790642584159283 -0.05224933406951383 0 
0.01844081418361819 0.02744662498150527 0.03261737586983093 -0.02546976695565648 0.03957741809626279 0 
0.007027661612128503 0 0 0 -0.003245903584449368 0 
-0.03123429026522882 0.06208416154481938 0 0 -0.02067284400578715 0 
0.007027661612128503 0 0 0 -0.01159326609955007 0 
0 0 0 0 0 0 
-0.02750290935992776 -0.1095477153959693 -0.02541117226125502 0.01411572108303837 -0.02746199939026873 0.08108385039852015 
-0.02750290935992776 -0.1095477153959693 -0.02541117226125502 0.01411572108303837 -0.02746199939026873 0.08108385039852015 
0 0 0 0 0 0 
0 0 0 0 0 0 
0 0 0 0 0 0 
0 0 0 0 0 0 
0 0 0 0 0 0 
0 0 0 0 0 0 
0 0 0 0 0 0 
0.1030534318814895 -0.0902884023305453 -0.02610317526581803 -0.05663186227305175 -0.07374737649914294 -0.01161944717329727 
0 0 0 0 0 0 
0 0 0 0 0 0 
-0.01505219644870733 0.03264246130026206 -0.001093845835547727 -0.005113382434587849 -0.02981165071241901 -4.336808689942018e-19 
0.01232154642126831 0 -0.0004849171784297797 -0.005677302744599272 1.301042606982605e-18 0 
0 0 0 0 0 0 
0.1834218133565322 -0.1095477153959694 -0.02541117226125502 -0.1726559794716117 -0.02733892022765126 0.08108385039852012 
-8.673617379884035e-19 0 0 0 -1.626303258728257e-18 0 
-1.301042606982605e-18 0 0 0 -0.008347362515100711 0 
0.1723811399928978 -0.1543602387014594 -0.002503676710663343 -0.03571483144826281 -0.04867200827333441 -1.734723475976807e-18 
0.07137791145055636 -0.02733947194141406 -0.00127664430328012 -0.01319858165646209 -0.01025708651488434 0 
0.0006342193884909691 0 0 0 0 0 
0.1553126969566796 -0.02377590205212201 -0.01658168971332412 -0.04577613567635302 -0.0319519898744156 0 
0.0006342193884909682 0 0 0 0 0 
-0.112031909220127 0.06163080378842135 -0.00179144059617914 0.0080974505653667 -0.0528396752809637 0.1909887066407601 
-0.112031909220127 0.06163080378842135 -0.00179144059617914 0.0080974505653667 -0.0528396752809637 0.1909887066407601 
0.003449517356745732 0 0 -0.002407896477274958 -0.006664977467273177 0 
0.0006342193884909682 0 0 0 0 0 
0.0006342193884909682 0 0 0 0 0 
0.003449517356745732 0 0 -0.002407896477274958 -0.006664977467273177 0 
0.0006342193884909682 0 0 0 0 0 
0.03423602044319794 -0.1855044231099645 0.03752232383502698 -0.01044656642488612 0.0526516348722495 -0.005837444057738704 
-0.02418193055991768 0 0 0 0.0116333308793739 0 
0.1167416164973097 -0.2225653039700181 -0.02875056734047937 -0.03984394770656158 -0.02235089893812896 -0.01514730043048345 
0.03523277790180296 -0.1073414826061702 -0.02264670311418527 -0.01056450429428276 -0.004292826168619785 0.07421446609239415 
0.03241936537544965 -0.1073414826061702 -0.02372629951258182 -0.02478161958963879 -0.004292826168619785 0.08399519291195021 
0.04147125441565283 0.02843412795070852 -0.02504015195351032 -0.07411401942004009 -0.07268223158549451 0.02846030946985642 
0 0 -0.01585470538810993 0 0 0 
-0.0317870922996152 0.1205093301989335 -0.0217256076019986 -0.06705676225376042 -0.03739638246698171 -0.004208501070004134 
0.03654596882294636 0.0709440262481033 -0.05021055475699374 -0.03101709044349337 -0.07118225963492129 -0.034033983118868 
-0.1322678080746434 -0.05507836086156755 0.2062667952742486 -0.02726846438187422 -0.02262586824032892 -0.01855933789860995 
-0.04736631832138296 0 0.08716377896042338 -2.168404344971009e-19 -0.0731331664658232 0 
-0.4613198340064984 0.5950504043789897 -0.1286527360862441 -0.14648207810321 -0.2949349977123635 -0.0839582006422354 
0 0 -0.01585470538810994 0 0 -0.001912214126806262 
0 0 -0.01585470538810993 0 -0.007383312801951588 0 
0 0 -0.01585470538810993 0 0 0 
0.05485992670364753 0 -0.03388456584459479 -0.02200239523487239 -0.03416235573094227 -2.168404344971009e-19 
0 0 -0.01585470538810993 0 0 0 
-0.04992549611217767 -0.08325165366495155 0.02173911912757392 0.1529633949451618 -0.07844457324259586 1.084202172485504e-18 
0 0 -0.01585470538810993 0 -0.007383312801951588 0 
0 0 -0.01585470538810993 0 0 0 
-0.08279938139220484 -0.01328037208489977 0.1107718701983919 0 -0.02262586824032892 0 
-0.1650072407433043 -0.06969119636086551 0.2535873733631061 0.062667147088779 -0.04120997955865075 0.01968886872004758 
0 0 -0.01585470538810993 0 0 0 
0.007027661612128499 0 0 0 -0.003245903584449369 0 
0.007132589599000745 -8.673617379884035e-19 -0.003042032372756802 8.673617379884035e-19 -0.003245903584449368 0 
0.007132589599000745 -8.673617379884035e-19 -0.003042032372756802 8.673617379884035e-19 -0.003245903584449368 0 
0.02497666568595951 0.02074207992236862 -0.01375608784997232 -0.01251721224423174 -0.01943490130063679 -0.007571455496593819 
0.007027661612128499 0 0 0 -0.003245903584449369 0 
0.007132589599000745 -8.673617379884035e-19 -0.003042032372756802 8.673617379884035e-19 -0.003245903584449368 0 
-0.06076659996333941 -0.03902410328008253 0.1462179015550482 -0.01360126756161358 -0.003245903584449368 3.469446951953614e-18 
0.03645033174064773 0 0 0 -0.03365307612320403 0 
0.1467462314587847 -0.08213378678102422 -0.09778369509204951 -0.1801584081063168 -0.06757036148218301 0.1151056506437065 
0.007027661612128499 0 0 0 -0.003245903584449369 0 
0.007027661612128499 0 0 0 -0.003245903584449369 0 
-0.006728475685028486 0.009745704424381267 0 0 -0.003245903584449369 0 
0.007027661612128499 0 0 0 -0.003245903584449369 0 
0.007027661612128499 0 0 0 -0.003245903584449369 0 
0.03657203860878555 -0.03650351390837554 -0.03368291645039757 -0.006731049784742402 -0.0184847885380163 -0.02816421954578012 
0.007027661612128499 0 0 0 -0.003245903584449369 0 
0.007027661612128499 0 0 0 -0.003245903584449369 0 
0.06874640096986304 -0.03933087857891623 -0.01322467592815256 -0.03791287882847307 -0.001666867716461935 -0.01758504059229433 
-0.02007072509428121 0.001629779724002785 -0.02349720947256718 -0.04096392560222262 0.06759105235521504 0 
0.02032726757583202 -0.002153181605566474 0 -0.000106379110840262 -0.002873264036922876 0 
-0.1229672776449051 0.1214925809434399 -0.06092997187474943 0.1373245985839075 -0.08183482284992967 -0.0212479924627013 
0.1521807958153412 -0.1651176751739162 -0.01293481874694094 -0.02764574731204094 0.03244513055820447 -0.008852562023801866 
0.0760318880230425 -0.03818236619815019 0 -0.000106379110840262 -0.02510674449781839 0 
0 0 0 4.336808689942018e-18 -0.002873264036922876 0 
-0.006651981225684163 -0.01566714700384159 -0.007171000359600041 -0.01420589337157776 -0.009612637151573983 0.05026297512009187 
-0.006651981225684163 -0.01566714700384159 -0.007171000359600041 -0.01420589337157776 -0.009612637151573983 0.05026297512009187 
0 0 0 0 0 0 
0 0 0 0 0 0 
0.07083573755567824 0.1199491335795114 -0.07520048743120625 -0.0007277353631429135 -0.1652696169415536 -0.02391125936158031 
0.03413157823947559 -0.002108728740161 0 0 -0.02680726400607367 0 
0.03413157823947559 -0.002108728740161001 0 0 -0.0163662005508442 0 
0 0 0 0 0 0 
-0.006651981225684163 -0.01566714700384159 -0.007171000359600041 -0.01420589337157776 -0.009612637151573983 0.05026297512009187 
0.118855135412936 -0.133194475759759 -3.252606517456513e-18 -0.02764574731204093 0.04712260479599403 -0.008852562023801866 
0.05963861419853452 -0.03607813023105088 0 -0.000106379110840262 -0.02510674449781839 0 
0.07837043713232103 -0.02657361310993284 -0.02784927226188943 -0.02238897122008863 -0.08570987736574341 -0.01173565385564522 
0 0 0 0 0 0 
0.06290128227522608 -0.08257558851079159 0 -0.005403557942770248 0 0 
-0.02575277325785407 -0.02504679133543884 4.336808689942018e-19 -0.03502403621999197 0.05838115154101358 -0.01583695978485148 
0.133605325370476 -0.0278172016171552 -0.01814528932443699 -0.02113603160511625 -0.08857203694042289 -0.009872417435709701 
0.01310943558736406 0.006392753506269672 -0.001759779125042271 -2.168404344971009e-19 0.005687295619577742 0 
0.06094645443926082 0.04188653085259175 -0.02741448668100261 -0.001252939614972392 -0.1065239264059278 -0.01285979581477933 
0.04189290755033046 0.007520758491847532 -0.01427831178153329 -1.301042606982605e-18 -0.04229226851295644 -0.001235659069504537 
0.0339759257061048 -0.01525999598400507 8.673617379884035e-19 0 -0.02968778740293652 0 
-0.1354200139664745 -0.03107974599214821 0.04539314842949313 -0.01227118529919444 0.08198370914265685 -0.0115418170052076 
0 0 -0.0005279008319133578 0 0 0 
0.07808983738072622 -0.01486163719513733 -0.07197337366751964 -0.008489117809474096 -0.01719693154593563 0.02567282896439486 
0.07808983738072622 -0.01486163719513733 -0.07197337366751964 -0.008489117809474096 -0.01719693154593563 0.02567282896439486 
0.06496397809097945 -0.133736431479078 -0.004455567406081665 0.006988769780693184 0.02581229349929902 -0.001823276490506082 
0.04938109485998907 -0.03267434466552721 -0.001392883057647595 -0.02349016066279442 0.00945812754306467 -0.001823276490506082 
-0.01453533661163092 -0.01486163719513733 -0.01664074118071712 -0.0084891178094741 -0.01719693154593563 0.02567282896439486 
0.006325975677512865 -0.0001635246350440936 -0.0005279008319133578 0 -0.008972022605057891 0 
0.03412572603961702 0.006227547587199294 -0.002298728071749926 -1.517883041479706e-18 -0.08073197663603465 -8.673617379884035e-19 
0.002928403304297825 -0.008693902307519612 -0.002278484319640555 0 -0.008972022605057887 0 
0 0 0 0 0 0 
0.03982835423672328 -0.02042741698959102 -0.03011640722235558 0 -0.01044106345522945 0 
0.1179931731945436 -0.03622493881921476 -0.03035697376596588 -0.02113603160511627 -0.07208349951225758 -0.004495425963023708 
0 0 0 0 0 0 
0.08025277495387816 -0.06611593581798329 -0.02133517934861534 -0.0237609959420622 0.0005709220680261035 -0.03460088129247722 
-0.3677523712673822 0.08589540544438222 -0.03739842519902142 0.3308712888138448 0.1861178508914894 -0.03586108769603286 
-0.04482915533119377 0.03405316616609896 0 0 0.02844247561799247 0 
0.1181513062554441 -0.01790508950319913 0.01880794707058213 -0.07501407344589363 -0.1328905682369507 -0.1607973516698808 
0.009110298290946093 0.01953253900231966 0 0 -0.04128512729125317 -0.02527753286187965 
0.06986988431324917 0.02646248890486384 -0.01792079708256377 -0.01653317629012131 -0.07190992691730098 -0.02654670302118212 
-0.7012636400086288 0.08377965044519312 -0.009476893317308657 0.2685818157659524 0.2233096775075757 -0.005122407960563088 
0 0 0 0 0 0 
-0.05895449699521529 0.1513059901108262 -0.03145476062441883 -0.02521747744125621 -0.115645063424443 -0.003437556203577877 
-0.01313278766649759 0 -0.007769590697688023 0 0 0 
0.01963024132551706 -0.03155899190118205 -0.005713162355702166 -0.005384435315587059 -0.04101894924382845 0 
0.08297893238993501 0.05198751585778523 0.0008284272313009905 -0.02202224755938201 -0.08457258854381133 -0.002325118153876699 
0 0 0 0 0 0 
0 0 0 0 0 0 
-0.0001066819570207196 0.0392145325899215 -4.336808689942018e-19 -0.01953771181907546 -0.01457242400200341 -0.02083525640152892 
0.1163873683878871 -0.06850587705794066 -0.01530116387178967 -0.07055916860497449 -0.03857876959018494 -0.04010272144227894 
0.002651542911182424 4.336808689942018e-19 0 0 -0.004722695598551437 -0.009006362358759484 
0.08011437386966488 -0.03473543973288309 -0.03704859230869943 0.06805692441775665 0.02224777318230239 -0.002544694669019728 
-0.05578534806090783 -0.09270227558335604 0 0.1738834273730649 0.140371105311657 -0.002544694669019728 
0.04725154256107805 0.0857405497032073 0 -0.02984219873756492 -0.09201295501380921 2.602085213965211e-18 
0.08011437386966488 -0.03473543973288309 -0.03704859230869943 0.06805692441775665 0.02224777318230239 -0.002544694669019728 
-0.19944875510487 0.1708728133727874 0.009231439096756005 0.1230500709246414 0.001193174999502545 -0.06384167456867181 
0.01691874970549702 0.03245916420244998 0 0 -0.01559970717709358 -0.009006362358759486 
0.1431425449277473 -0.1173051296550821 0 -0.0357217279584396 -0.06453785447499713 -0.009006362358759483 
0.016067436582915 -0.007196243892452421 0.0556748709920062 -0.03920109613713688 -0.0429271204280898 1.951563910473908e-18 
-0.07715213032954758 -0.002916263003408254 0.1386097825208193 -0.02547392339112128 -0.01461700239825072 0 
0.01787125457135097 -0.002916263003408254 -0.002969965503673203 0 0 0 
0.1175975756065059 -0.07655608811774677 -0.006379735670761381 -0.02820894756123009 -0.08321669487246369 1.734723475976807e-18 
0.01787125457135097 -0.002916263003408254 -0.002969965503673203 0 0 0 
0.01787125457135097 -0.002916263003408254 -0.002969965503673203 0 0 0 
0.1248975241168978 -0.07075981652212623 -0.01945596240580641 -0.02443707504651054 -0.03120633545516279 -0.02727203532198403 
0 2.168404344971009e-19 0 0 0 0 
-0.0882932462253813 -0.002328324982436013 -0.007837697520427817 -0.03365785428743673 0.09935131845507085 0 
-0.03154037959077868 -0.010452226101409 -0.006100572076255404 -0.005603158055544561 0.02465967257097329 -0.01779714170683779 
0.03342144342195064 -0.02619080071694331 0 0 0 0 
0 0 0 0 0 0 
0.03342144342195064 -0.02619080071694331 0 0 0 0 
0.07775462458686151 -0.03133852923885111 -0.02638918439456551 -0.02113603160511625 -0.04434031397325046 -5.058033347719786e-05 
0 0 0 0 0 0 
0.04574298984321896 -0.0261908007169433 -0.00127664430328012 -0.00567730274459927 -0.001099239036751564 0 
0 0 0 0 0 0 
0.1762351848022335 -0.0001319029179563576 -0.1759584224229153 -0.08768859034956546 -0.01852747928810259 -0.01810289420247942 
-0.004753124402335139 0.0005022197532057321 0 0 0 0 
0.001695526200206221 0 -0.005153326683559517 0 0 0 
0.001695526200206222 0 -0.005153326683559517 0 0 0 
0.001695526200206222 0 -0.005153326683559517 0 0 0 
0.001695526200206222 0 -0.005153326683559517 0 0 0 
0.001695526200206222 0 -0.005153326683559517 0 0 0 
0.001695526200206222 0 -0.005153326683559517 0 0 0 
0.001695526200206222 0 -0.005153326683559517 0 0 0 
0.001695526200206222 0 -0.005153326683559517 0 0 0 
0.03677136169238889 -0.05986515356896215 0.01598794813122581 -0.02379318005664369 -0.07788847591763974 -0.0296226493715473 
-0.0322912462596574 0.05257146176632717 -0.005153326683559517 0 8.673617379884035e-19 -0.0005464662955567312 
0.04134558081898246 -0.0222452852241628 -0.005153326683559517 0 0 0 
0.001695526200206222 0 -0.005153326683559517 0 0 0 
0.001695526200206222 0 -0.005153326683559517 0 0 0 
-0.1161233690042011 -0.01402527420726083 -0.006934055424167645 -0.01723701404671521 0.140556650766731 0 
-0.1104676303341084 0.08007095079924484 0.02006196541022108 0.08481566172463496 0.001690253573638029 -0.0197733252060318 
0.001695526200206222 0 -0.005153326683559517 0 0 0 
-0.03695927238450004 -0.0761797685107697 0.04888728745744775 -0.0006717911136007034 -0.00611963204356956 4.336808689942018e-19 
0.06766953422588275 -0.009905534306889967 -0.005153326683559517 -0.04310353887180096 0 0 
0.04842641824017236 -0.0006925526919837349 -0.01631786724081154 0 -0.003164106901704284 -0.01553378770012308 
0.001695526200206222 0 -0.005153326683559517 0 0 0 
0 0 -0.008071497320975504 0 0 0 
0.01763488691582578 -0.1950193565462181 0.02984040359305139 -0.06314065487965298 0.04438884436784356 -0.005195461046387887 
0.01763488691582578 -0.1950193565462181 0.02984040359305139 -0.06314065487965298 0.04438884436784356 -0.005195461046387887 
-0.02925716211058763 -0.00300731679536258 0.007377135887346318 -0.03057862648069707 0.02629938822932785 0.01120631079011005 
0 0 -0.008071497320975504 0 0 0 
0 0.01044785356861135 -0.008071497320975504 0 0 0 
0 0 -0.008071497320975504 0 0 0 
0 0 -0.008071497320975504 0 0 0 
0.04796882359544257 0.02264143798887906 -0.009704282684349821 -0.01307563665979005 0.00486575569615836 -0.003266156976267007 
0 0 -0.008071497320975504 0 0 0 
0 0 -0.008071497320975504 0 0 0 
0.08586783664411773 -0.1161761461148263 -0.003374023823742823 0.008597435537517888 0.09230248461185606 -0.01893301349131119 
0 0 -0.008071497320975504 0 0 0 
0 0 -0.008071497320975504 0 0 0 
-0.02925716211058763 -0.00300731679536258 0.007377135887346318 -0.03057862648069707 0.02629938822932782 0.01120631079011005 
0.01763488691582578 -0.1950193565462181 0.02984040359305139 -0.06314065487965301 0.04438884436784362 -0.005195461046387887 
0 0 -0.008071497320975504 0 0 0 
0 0 -0.008071497320975504 0 0 0 
1.734723475976807e-18 0 0 0 0 0 
1.734723475976807e-18 0 0 0 0 0 
0.03404430392358714 8.673617379884035e-19 -1.897353801849633e-19 -0.011706262469701 -0.01891631080243217 -0.00546657523530224 
0.0186959366402449 0.01945744481823908 -0.01888629909371291 -0.01078530139220068 -0.01957574970987986 0 
0.03957545199946934 -0.03522014761021734 0 -0.01078530139220067 -0.00668304212147855 0 
1.734723475976807e-18 0 0 0 0 0 
1.734723475976807e-18 0 0 0 0 0 
1.734723475976807e-18 0 0 0 0 0 
0.135318073974645 -0.1756116863750648 0.02238110188120106 -0.0808208437387386 0.002098769528625144 0.005383797754809088 
0.02475441671472531 -0.1114417877075305 -0.04308891997179039 0.04630780116707351 0.02428227637428901 -0.03381363021964126 
0 0 0 0 0 0 
0 0 0 0 0 0 
0 0 0 0 0 0 
0.001702429186751062 -0.01921560273442145 0 0 -0.004044316539655162 0 
1.734723475976807e-18 0.001534581652977279 0 0 0 -5.058033347719786e-05 
0 0 0 0 0 0 
-0.6090684998811398 0.5672452628511965 -0.05633977437004297 -7.806255641895632e-18 0.02207374665410393 -0.001546298884972371 
0.02999200343949491 -0.02346577986161172 -0.002964908429276525 -0.02685398826231558 -0.04472791432411317 0 
0.0977016640976667 -0.02849451789021245 -0.1074873052616882 -0.03239769653358497 0.03603327128586482 -0.08015215483619079 
-0.03610425554682147 0.01814656375467497 0 0 -0.008923792082974225 0 
-0.03610425554682146 0.01131371363121014 0 0 0 0 
0.02088899432110137 -0.08419717525122275 8.673617379884035e-19 -0.01444421572335438 0.002742786061274358 0 
0.1195476088911074 0.06109901039575748 -0.02810162466386021 -0.01569796518053708 -0.1798524564976758 -0.04200748622911832 
-0.04458108522649584 0.03700207255332097 0 -0.001418218564275345 0 0 
-0.7931965862260222 0.8439515343425245 -0.05633977437004297 -7.806255641895632e-18 -0.07437024426130755 -0.0003789285649389957 
-0.3308443261236859 0.3732742839444495 0 -2.602085213965211e-18 1.734723475976807e-18 0 
0.0645838297550768 0.01131371363121014 6.505213034913027e-19 -0.02870684825486432 -0.03518432046098299 -4.336808689942018e-19 
-0.03610425554682146 0.01131371363121014 0 0 0 0 
-0.05795483760374215 0.03476202427755892 0.07009047474083831 -0.01522824773801987 -0.001300622820881535 0 
0.03091914154595677 0.02981642222668223 0.02788565035195953 -0.0471561976116933 -0.09176832236978655 0.0450070799741096 
-0.03610425554682146 0.01131371363121014 0 0 0 0 
-0.03610425554682146 0.01131371363121014 0 0 0 0 
-0.03291250969814002 0.01131371363121014 0 -0.01444421572335438 0.01574243680899449 0 
-0.02656671187685275 0.01131371363121014 -0.00947415775714028 0 0 0 
-0.03610425554682146 0.01131371363121014 0 0 0 0 
0.006898656171401658 0.009941494653322374 8.673617379884035e-19 -4.336808689942018e-19 -0.02308195772934301 -0.005849386736649105 
0 0 0 0 0 0 
0 0 0 0 0 0 
0.04341871974675742 0.003875524011024023 -0.03362719116601495 0 -0.0179625809894319 -0.005849386736649105 
-0.02226874785805831 0.02334123352560586 0 0 0 0 
0.0461566749711236 -0.005688257591811455 -0.03362719116601495 0 -0.001319200285187547 -0.004151886262683442 
0.0008174094956496448 0 0 -0.001595855704948289 0 0 
0.0008174094956496448 0 0 -0.001595855704948289 0 0 
0.0008174094956496448 0 0 -0.001595855704948289 0 0 
0.0008174094956496448 0 0 -0.001595855704948289 0 0 
0.0008174094956496448 0 0 -0.001595855704948289 0 0 
-0.05157014401118774 -0.01763465670695442 0.02122129468392149 0.1114224952477132 -0.07511834209388377 -0.001422255451641437 
0.0008174094956496448 0 0 -0.001595855704948289 0 0 
0.0008174094956496448 0 0 -0.001595855704948289 0 0 
0.06525902883727255 -0.01948291004295338 -0.0008278612125869558 -0.02722798938831974 -0.0005602528864688993 0 
-0.02899994661030959 0.09343364748770845 0.0001619874393782894 -0.01298065717168228 0.02775216894989655 -0.01099560048232987 
0.0008174094956496448 0 0 -0.001595855704948289 0 0 
0.0008174094956496448 0 0 -0.001595855704948289 0 0 
-0.1466323057592947 0.01809213833584906 -0.0007421218495913082 0.0005304922296403007 0.1468729035334393 0 
0.0008174094956496448 0 0 -0.001595855704948289 0 0 
0.008942347208661041 -0.008287325640120188 0 0 -0.007269878527165949 0 
0 0 0 0 0 0 
0.05345997421563969 -0.07539719374841961 0.06683964920477492 -0.04998323863886077 -0.03931525866261288 -0.001913816753412727 
0.09574465841091008 -0.03054735204921828 -0.03188706264774634 -0.004115580068578754 -0.0261089706829998 -0.002581609209610973 
-0.1097298299990949 -0.04593581582779996 0.008966041126911233 -0.1007913240778148 0.1878367503376694 -0.1014617352225444 
0.1596408460571625 -0.001198452321443385 -0.0430493565745259 -0.08757961364290531 -0.1265722436195085 -0.07926038799070556 
0.05494146085221797 0 -0.00175165071591379 0 0 0 
-0.01116531771471244 0.04320426145754099 -0.00175165071591379 0.008472268982953319 0 0 
0.03018685651055197 -0.005998074305211877 -0.007607404262045265 -4.336808689942018e-19 -0.0048102066600823 -0.002581609209610976 
-0.20093496663068 -0.00773068458802464 -0.00175165071591379 0 0.2009325241219353 0 
0.03190629912600228 -0.04469298357396215 -0.05104882501590414 -0.01865442582336259 -0.006372865006768213 -0.03653718681291095 
-0.02465111596731729 -0.02180022380325639 -0.00135696263973893 1.355252715606881e-18 0.04221956911102655 -0.01080338220112759 
0.0293031440313531 -0.01392699468576923 2.168404344971009e-19 0 -0.01370674530508032 0 
0.0293031440313531 -0.01392699468576923 0 0 0 0 
0.0293031440313531 -0.01392699468576923 0 0 0 0 
-0.01722975623569791 0.01782568059153222 -2.168404344971009e-19 -0.002102778966466171 -0.04707808173633907 -0.001731779354576486 
0.02144317101571173 0.002993038682297241 -0.01090275237524107 -0.001252939614972388 -0.03493963141396292 -0.006588843000588421 
0.0293031440313531 -0.01392699468576923 0 0 0 0 
0.01073830651104231 0.002096650497687862 -0.001356962639738923 1.734723475976807e-18 -0.004333784101930753 -0.004151886262683441 
0.02471465754170347 -0.006240770212356691 2.168404344971009e-19 -0.005793288936096011 -0.0136196575258596 0 
-0.01711550889837467 -0.02900949428020978 -2.168404344971009e-19 0 -0.001399995987493042 0 
0.0323234998522809 -0.03917707451461291 -0.03189985865214773 -0.01627882580415086 0.04663503474738812 -0.01384667976626949 
0.03027888494371004 0.00163744498327446 -0.03912561538701809 -0.02902142143317702 -0.003237837038874548 -0.007374008312079378 
0.08952082982312956 -0.06042944997905512 -0.01291219891971915 -0.008738234102467898 -0.05451306124238444 -0.01217007384447867 
-0.0003802941476532007 -0.03766571479432002 -0.03423259882284618 -0.04930490764959366 0.02425768906587517 0.01619752476949262 
0.04788113179019347 0.01415156849320663 -0.002351202595454415 -0.02170090972829694 -0.01711285519589236 -4.336808689942018e-19 
0.0753714527235467 -0.03396530468284342 -0.01210865721067773 -0.005793288936096009 -0.04776216872990529 0 
0 0 0 0 -0.009235954314358348 0 
-0.03257703002702428 0 -2.168404344971009e-19 0 0.0162954186916632 0 
-0.03257703002702428 0 -2.168404344971009e-19 0 0.0162954186916632 0 
0.01720235025567822 0 2.168404344971009e-19 1.301042606982605e-18 -0.0136196575258596 0 
0.01720235025567822 0 -2.168404344971009e-19 0 -0.0136196575258596 0 
0.01720235025567822 0 -2.168404344971009e-19 0 -0.0136196575258596 0 
0.0215937286584955 -0.007204502641589818 -2.168404344971009e-19 0 -0.0136196575258596 0 
-0.08220322753550516 0.01298999908938684 -2.168404344971009e-19 0 0.0608447691066564 -0.006270952814190894 
-0.07308508031448858 0.01298999908938684 -2.168404344971009e-19 0 0.03171930820570987 -0.006270952814190894 
0.01720235025567822 0 2.168404344971009e-19 1.301042606982605e-18 -0.0136196575258596 0 
-0.03257703002702428 0 -2.168404344971009e-19 0 0.0162954186916632 0 
0.04731842237634361 -0.01499895876281869 -0.001866285417024638 -0.005113382434587845 -0.01153765642556807 0 
0.029412503255375 -0.02858304055738644 -0.009915722381788356 -2.168404344971009e-19 -0.03089967479470829 0 
0.05274089663273348 0.09122818140824475 0.01222203930670729 -0.06364947293483721 -0.08925685018556752 -0.01295983121829529 
0.02709324877572382 -0.02709143409295406 -0.003501599108258267 0.04701013345317556 -0.0487304819826324 0 
-0.2627354386519243 -0.06857997154136616 -0.01700629851536938 -0.01437196127752655 0.3023215855308757 0.1297494875236907 
0.05562686351004499 -0.03022700824576146 0 0 -0.003747638988657582 0 
0.03862605540450125 -0.006679290111347965 0 0 -0.003747638988657582 0 
0.03862605540450125 -0.006679290111347965 0 0 -0.003747638988657582 0 
-0.08613111516355872 -0.06352019937470203 0.0680057946366012 0.1024987814018496 0.05338775758791486 -0.05835834396617409 
-0.05471722551921319 0.008136586801221164 0.04381093946367352 -0.03240034377447339 8.227629565005527e-05 0 
0.1337261584189962 -0.07002884122995609 0 0 -0.003747638988657583 0 
0.1337261584189962 -0.07002884122995609 0 0 -0.003747638988657583 0 
0.07397955962032572 -0.04048267844574893 0 0 -0.003747638988657582 0 
-0.2769328077411556 0.1430672579685805 -0.06712018218947033 0.1307208602066564 -0.04151151244765092 -0.05931188277147546 
0.09676723694957778 -0.06001703673176959 -0.01277183927425827 -0.05328260893418316 -0.02477385082879805 0 
0.03862605540450125 -0.0219854697155532 0 0.05326228931851965 -0.01070690216688608 0 
-0.0170441248652614 -0.0219854697155532 0.02602561252509199 0.05196087984188442 -0.01070690216688608 0 
0.199928361370113 -0.1276398918092527 -0.02644600815022557 0.001232927687233781 -0.01569596390698867 -0.05205355620903349 
0.1097451384034538 -0.06623968912135636 -0.06480801789313821 -0.04754405229994994 0.007689445479744041 0.02888615627855504 
0.03862605540450125 -0.006679290111347965 0 0 -0.003747638988657582 0 
0.05562686351004499 -0.03022700824576146 0 0 -0.003747638988657582 0 
0.05562686351004499 -0.03022700824576146 0 0 -0.003747638988657582 0 
0.03862605540450125 -0.006679290111347965 0 0 -0.003747638988657582 0 
0.03862605540450125 -0.006679290111347965 0 0 -0.003747638988657582 0 
-0.006654125076365232 -0.006679290111347965 0 0 0.02447016126288661 0 
0.03862605540450125 -0.006679290111347965 0 0 -0.003747638988657582 0 
0.03745810567874084 0.0190732056718806 0 0 -0.01077803695650792 0 
0.03862605540450125 -0.006679290111347965 0 0 -0.003747638988657582 0 
-0.008034949262704713 -0.02988516541717104 0 -0.008126728981269468 0.01469663956232462 0 
0.03862605540450125 -0.006679290111347965 0 0 -0.003747638988657582 0 
-0.006740518120200605 -0.03648189548015376 0.01503028545969588 0.01711105580830291 0.02599833275977086 -0.01005326998070868 
-0.008101559075780935 0.01864081287733046 -0.002550574215752113 0.01343810499059118 -0.01267143107163179 0 
0.04339620258916765 -0.01146672589439074 0 0 -0.003747638988657582 0 
0.1853782058723625 -0.0577385781201338 -0.03123033193323312 -0.03122637486939649 -0.05416807967153828 -0.01230261661805506 
0.09837265420317204 -0.03622545289555493 0 0 -0.003747638988657583 0 
0.09837265420317204 -0.03622545289555493 0 0 -0.003747638988657583 0 
0.04398032390037607 0.07625614040766721 -0.005016097358819818 -0.04623467514656429 -0.01979794654806042 -0.001713380813113491 
0.05562686351004499 -0.03022700824576146 0 0 -0.003747638988657582 0 
-0.5261391666690167 0.265956088601349 -0.04793975358345721 0.1397041225797453 -0.03464855403293571 -0.01626207841266762 
0.1721056159327093 -0.07002884122995609 -0.01277183927425827 -0.09611584603901234 -0.02477385082879805 0 
0.03073759442217627 0.00384770187929991 0 0 -0.003747638988657582 0 
0.03862605540450125 -0.006679290111347965 0 0 -0.003747638988657582 0 
0.1278051830742527 -0.01098314851252667 -0.01854236220194384 -0.04066875001483479 -0.0271427646616863 -0.005394393405607225 
0.07202459902675823 -0.01366377550328728 -0.003998703346134917 0 -0.003747638988657581 0 
0.03862605540450125 -0.006679290111347965 0 0 -0.003747638988657582 0 
0.0815736057219829 -0.02111350129474367 -0.00620179351108728 -0.03250675925644124 0.03259021487115057 -0.0006683825140332441 
0.03862605540450125 -0.006679290111347965 0 0 -0.003747638988657582 0 
0.03862605540450125 -0.006679290111347965 0 0 -0.003747638988657582 0 
0.02775921364859479 0.01745220726532521 -0.0143807133700625 -0.02990755932786796 -0.06286104742192736 -0.001438390123121292 
0.03862605540450125 -0.006679290111347965 0 0 -0.003747638988657582 0 
0.03862605540450125 -0.006679290111347965 0 0 -0.003747638988657582 0 
8.673617379884035e-19 -0.004416563849661645 0 0 0 0 
8.673617379884035e-19 -0.004416563849661645 0 0 0 0 
0.002229476418491349 -0.01352621092727921 0 0 -0.02506808855331107 0 
0.0238944078231789 0.0326374596527789 -0.01337138071758134 -0.01627882580415085 -0.05401912917281565 -0.003512356293347231 
0.02591137991537433 -0.0228047284956667 -0.001866285417024637 -0.01034772787498317 2.168404344971009e-19 -0.001103055497888488 
0.009762364332504053 -0.0009809280142655833 -0.00186628541702464 5.764848533073132e-06 -0.04406249791986827 -0.02718740304776925 
0.03878776101203273 -0.03040158262648139 -0.02181004347658749 -0.01798332944691109 -0.00199542838842277 0 
0.00728183753441604 0.0535651528169927 -0.02209833126268888 -0.005677302744599273 -0.01807576916425729 0 
0.022378431714181 -0.02980496426082744 0 -0.001301355123755552 0 0 
0.002229476418491354 -0.01087904461459313 0 0 0 0 
0.0427738581583914 -0.001824206362695048 -1.301042606982605e-18 -0.005793288936096015 -0.05625760663869709 0 
0.01458759744802805 0.007549393395252325 0 -8.673617379884035e-19 -0.03762270482660949 0 
0 0 0 0 0 0 
0.009473597417283789 -6.505213034913027e-19 6.776263578034403e-20 0 0.007977831471715914 0 
0.003045033577497447 -0.009946433859985376 0 4.336808689942018e-19 0.006787523325379352 0 
0.1056487776942524 -0.06724071610276645 -0.008980749263653281 0.02698687948196494 -0.04664279304915776 0 
0 0 0 0 0 0 
0.009080470963966261 -0.08199651565629501 -0.008980749263653281 0.03242289207925604 0.06706156805659107 0 
-0.04029378790097921 -0.01105374690222117 -1.355252715606881e-20 -0.01192733762336507 0.01915881619801528 -0.0005464662955567312 
0.03933198527355192 -0.08013437162966217 0.0142503059689433 0.03732892174542049 -0.02414699462497443 -0.003437556203577876 
0.07938388986654737 -0.04739683466256472 -0.02087500020020261 -0.001326785323545617 -0.01024683699068815 0 
4.336808689942018e-19 0 0 0 0 0 
-0.04782268533008345 -0.01515930514650711 0.07804680488944248 -0.009054327888502666 -0.002176579479470247 0 
0.0133602534741684 0 0 0 0 0 
4.336808689942018e-19 0 0 0 0 0 
0.05991605406956232 -0.006970956409423704 1.084202172485504e-19 -0.005017420022066513 -0.04416220070713907 0 
0.03855204855609334 -0.004069113398623802 0 0 -0.01974789418990659 0 
0.01824426423339907 -0.01433301771759054 -0.00625765376598322 0 0 0 
-0.04782268533008345 -0.01515930514650711 0.07804680488944248 -0.009054327888502666 -0.002176579479470247 0 
0.03384344613873613 -0.01833123717416907 -0.02016879038438552 0 -0.008791940301354894 0 
-0.002390671977937435 0.01709625141059302 0 0 0 0 
-0.3347678805139098 0.1459842505984616 -0.06415778709700061 0.09620466401608385 0.06109149977467633 0.08546734611309693 
-0.3347678805139098 0.1459842505984616 -0.06415778709700061 0.09620466401608385 0.06109149977467633 0.08546734611309693 
0.03410621409827874 -0.01732957558192184 0 0 -0.0007529599302541001 -0.008054178271295112 
0 0.01709625141059302 0 0 0 0 
-0.1695917868099276 0.07856354255254805 -1.301042606982605e-18 -0.00208472323457119 -0.1321958485858747 -0.01856682077280542 
0.03410621409827874 -0.01732957558192184 0 0 -0.0007529599302541001 -0.008054178271295112 
-0.3347678805139098 0.1341278667108235 -0.06415778709700061 0.09620466401608385 0.06477035964080034 0.08546734611309693 
-0.04482915533119378 0.01709625141059302 0 0 0.04400373699519201 0 
0.08773787224028941 0.05349903865393407 -0.06010501833980771 -0.01277873493947464 -0.01452473949389883 -0.008955514103727089 
0 0.01709625141059302 0 0 0 0 
0 0.01709625141059302 0 0 0 0 
-0.006280587046900999 0.02937140835778277 0 -0.02167914362307357 -0.03207093616697256 -0.0009378610946109236 
0 0 0 0 -0.004648791394237763 0 
0 0 0 0 0 0 
0.02468230681193026 -0.02874865550969205 0 0 -0.0200629296424043 0 
0 0.009414003402251219 0 0 -0.01171556712730356 0 
0.02468230681193026 -0.02874865550969205 0 0 -0.0200629296424043 0 
0 0 0 0 -0.004648791394237763 0 
0.1400330960129752 -0.129715030173945 -0.01458908899014857 -0.1036043984750091 -0.02023857780340842 -0.01151928564519628 
-0.02481614994840863 0 0 0 0.0116333308793739 0 
0.03065186054374111 -0.01838251948752239 -0.002540556260717316 -0.08774055477256636 -0.02034508873917493 -0.04397663000043842 
0.04645226262463931 0.003557454336533046 -0.002095861450602123 -0.06373547332537502 -0.09137556425664159 -0.1280896568472148 
0 0 0 0 0 0 
0.01183242573404701 0 -0.003062684348434073 0 -0.002510246578847088 0 
-0.07255030351768565 0.03428321645104297 -0.002043777911788777 -0.003834335486540155 0.05341647824592094 0 
-0.01200244433285822 0 0 0 0.008747274617447258 0 
0.09350587907712936 -0.02722511444540339 -0.05260315204615175 -0.01119445387382832 -0.003828212818045502 -0.007937097021515542 
0.06903534986287105 -0.03638970948541839 0 -0.0118167840072903 -0.009631905064331439 -0.01861415688571126 
0 0 0 0 0 0 
-0.04702374979078401 -0.02383073447272645 -0.01847932429297927 0.1580736201986323 -0.01559285220076422 -0.0006643268691867682 
0 0 0 0 0 0 
0 0 0 0 0 0 
0 1.734723475976807e-18 0 0 0 5.421010862427522e-20 
-0.03726753782532508 0.02194646504682383 0 0 0 5.421010862427522e-20 
0 0 0 0 0 0 
-0.01418887644353137 0.01600787977056381 0 -0.01034886192643751 0 0 
0.002740751960651543 0.01451857559973908 0 0 -0.003246097653035408 0 
0.1090961799144204 -0.1129712170842083 -0.01963307504641704 -0.06271551432742523 -0.01453464194281052 -0.0918199951478738 
0 0 0 0 0 0 
0 0 -2.168404344971009e-19 0 8.673617379884035e-19 0 
-0.1952506009952822 -0.06726982457650714 -0.0396267022913845 0.2201540098740318 -0.02447418060361158 -0.03541052082577301 
-0.04396865960207683 -0.01085169370479178 -0.008210403996935144 0.03173083985742796 -0.009125831481513937 0 
-0.02466393345473634 -0.01085169370479178 -0.01125725575864107 0.02128331771071587 -0.03105922824339223 6.505213034913027e-19 
-0.003170237326247999 -0.04027493810628922 -0.007759594066930026 0.02011513214561282 -0.002023989499540812 0 
5.421010862427522e-19 -0.04216685705086771 -0.007378637044319071 0.04398737972135766 8.673617379884035e-19 0 
-0.2925022734359249 -0.1109838509241821 -0.05770120718563224 0.1695957921897817 0.1434818062534244 -4.336808689942018e-19 
-0.1930799772201371 -0.04021051092005663 0.07817761848470677 0.12689312980147 -0.02277096933283851 1.517883041479706e-18 
8.673617379884035e-19 0 0 0.01670440750111224 -0.003772189399214696 0 
0.002877038364623782 -0.1550232108355664 -0.02817201438753196 0.1711213586868698 -0.05364419745584447 -4.336808689942018e-19 
-0.0913207291708634 -0.06350140088280966 -0.04626855365401539 0.167189495989016 -0.05226130918114848 6.505213034913027e-19 
-0.07847396003724029 -0.02090020696811572 0.0002225047857150742 0.1209115017549681 -0.06477434992581386 -0.1515418189903179 
-0.5226793765817034 0.6700875990623624 -0.01925878115583034 0.09309566745810641 -0.06957512105799386 0 
-0.1228498210608168 -0.04827432535164548 -0.02740090538441619 0.07985242910589846 0.06537588161306471 0.07676718965949374 
-0.1228498210608168 -0.04827432535164548 -0.02740090538441619 0.07985242910589846 0.06537588161306471 0.07676718965949374 
-0.1088442055061652 -0.02357200171263717 -0.03337268624966972 0.07938634841227979 -0.02267329966909582 6.505213034913027e-19 
-0.1088442055061653 -0.02357200171263717 -0.03337268624966972 0.07938634841227976 -0.02267329966909583 6.505213034913027e-19 
-0.4481882656176441 -0.1458650387474811 -0.08785241829676738 0.251358807624107 -0.1038022588824378 -2.602085213965211e-18 
0 0 0 0 0 0 
0 0 0 0 0 0 
0 0 0 0 0 0 
-0.03737588159701893 -4.336808689942018e-19 4.87890977618477e-19 0.03614033976536882 -0.005598337121073489 0 
0 -4.336808689942018e-19 0 0 -0.001311456991226664 0 
0 0 0 0 0 0 
0 0 0 0 0 0 
0 0 0 0 0 0 
0.01669897467859759 -0.004647526596922744 -0.003195691355415449 -4.336808689942018e-19 -1.084202172485504e-18 0 
-0.03471359535350349 -0.02357200171263717 -2.168404344971009e-19 0.03120090326020181 0 0 
0 0 -2.168404344971009e-19 0 0 0 
-0.06028762586202113 -0.02357200171263716 -6.505213034913027e-19 0.05121530957236781 -3.035766082959412e-18 0 
-0.1088442055061652 -0.02357200171263717 -0.03337268624966972 0.07938634841227979 -0.02267329966909582 6.505213034913027e-19 
-0.05967969605657222 -0.044784598898575 -0.02740090538441619 -0.02146376023312123 0.07930895714396932 0.1005951203187076 
-0.2167714342782289 0.2244467355278026 0.1043781016205519 0.04475781203259682 -0.07595085951313668 -0.08966977199605154 
-0.1957601548646647 0.1603324726369951 -0.007292586883410525 -0.01808257601626857 0.08837062410855216 -8.673617379884035e-19 
0 0 0 0 -0.001277711398339041 0 
0.09022707712028237 -0.05331667943209999 0 0 -0.001277711398339041 0 
0.02725069481897527 -0.06973192272620977 -0.02074814342476676 -0.01344398665959158 0.05012515437623195 0 
0.05925437750188641 -0.01393342068367409 0 -0.02015067650970093 -0.006390765823180624 0 
0 -0.01418522595429225 0 0 -0.001904857466008129 0 
0 0 0 0 -0.001277711398339041 0 
0.01373685555128983 -0.008584479807543758 0 0 -0.001277711398339041 0 
-0.05514382315220828 -0.005248529402945549 0.02049720952219286 -0.006055422827306093 -0.007075010059685593 0.04235156803627787 
0 0 0 0 -0.001277711398339041 0 
0.01022578403106725 -0.01675583278784996 0 0 -0.001277711398339041 0 
0 0 0 0 -0.001277711398339041 0 
0.05850898655166828 0.0794984052698353 -0.01491000018993677 -0.05285314015910725 -0.02160378219383681 -0.01789161175847847 
0 0 0 0 -0.001277711398339041 0 
0 0 0 0 -0.001277711398339041 0 
-0.05514382315220828 -0.005248529402945549 0.02049720952219286 -0.006055422827306093 -0.007075010059685593 0.04235156803627787 
6.505213034913027e-19 0 0 0 -0.01101146857446925 0 
0.00892947625193077 0.007348557613106133 0 -0.01084008219600755 -0.001277711398339041 0 
0 0 0 0 -0.001277711398339041 0 
0 0 0 0 -0.001277711398339041 0 
0.04828607223123382 0.02083133440152021 -0.03672342527362732 -0.03219881036909749 -0.0548224770114123 -0.004153804314775069 
0.05097181374972364 -0.001148671224470753 -0.0004849171784297805 0.03066908745527934 -0.03713166730413689 0 
0.03907261779585253 -0.01602537649768615 -0.002286581306153597 -0.01369222363485881 0.03314830847750273 0 
0.03732224864011482 -0.001148671224470753 -0.0004849171784297801 -0.01319858165646209 -0.009157847478132794 0 
-0.1278523415391092 -0.003796338456936592 -0.01040063956021814 -0.01319858165646209 0.173746049036868 0 
0.03732224864011482 -0.001148671224470753 -0.0004849171784297801 -0.01319858165646209 -0.009157847478132794 0 
0.01232154642126831 0 -0.0004849171784297797 -0.005677302744599272 0 0 
0.01552454035631698 0 -0.0004849171784297797 -0.005677302744599272 -0.003618983148744417 0 
0.01232154642126831 0 -0.0004849171784297797 -0.005677302744599272 0 0 
0.01232154642126831 0 -0.0004849171784297797 -0.005677302744599272 0 0 
-0.01112328551541211 0.00884299484612042 -0.0004849171784297797 -0.005677302744599272 0.01371383863638343 0 
-0.07114327004958598 -0.0148834683793801 0.04132874193682957 0.03982243264463192 0.04930760460455349 0 
-0.01106636241471849 0 -0.0004849171784297797 0.03130014760419579 -0.002715270486505886 0 
0.01899247772104973 -0.001262790817114923 -0.0004849171784297797 -0.005677302744599272 0 0 
0.07656997976231519 -0.06489334809278059 -0.0006298825435441506 -0.005677302744599272 -0.03309905843373465 0 
0.01354390518424981 -0.001214147174353569 -0.0004849171784297797 -0.005677302744599273 0 0 
-0.07909022039476966 0 -0.0004849171784297797 -0.005677302744599272 0.06773372956230786 0 
0.01232154642126831 0 -0.0004849171784297797 -0.005677302744599272 0 0 
0.01232154642126831 0 -0.0004849171784297797 -0.005677302744599272 0 0 
0.01552454035631698 0 -0.0004849171784297797 -0.005677302744599272 -0.003618983148744417 0 
0.01232154642126831 0 -0.0004849171784297797 -0.005677302744599272 0 0 
0.02218540425059174 -0.001148671224470753 0 -0.005113382434587849 -0.002492870010859606 0 
0.05422550646310116 -0.01719706157046459 0 -0.005113382434587849 -0.01318824672721252 0 
0.02218540425059174 -0.001148671224470753 0 -0.005113382434587849 -0.002492870010859606 0 
0.02218540425059174 -0.001148671224470753 0 -0.005113382434587849 -0.002492870010859606 0 
-0.01689513907741081 -0.005965190362952627 0.02919442449949378 -0.005321371781418793 -0.002492870010859606 0 
-0.02456051534673075 -0.08989630711130966 -0.01939345295853813 0.08516829464893702 0.08910996744023081 -0.01809927231046361 
-0.002614819866807064 -0.001148671224470753 0 0.01693981735670655 -0.01333665672558627 0 
0.02218540425059174 -0.001148671224470753 0 -0.005113382434587849 -0.002492870010859606 0 
-0.05137082395119383 -0.001148671224470758 -0.003233898733283024 -0.009868934064815506 0.1138919742220559 0 
0.05422550646310116 -0.01719706157046459 0 -0.005113382434587849 -0.01318824672721252 0 
0.02218540425059174 -0.001148671224470753 0 -0.005113382434587849 -0.002492870010859606 0 
-0.1035580769565435 0.04178790812618782 0.06362489782031698 -0.01738456773378229 -0.002492870010859606 0 
0.02218540425059174 -0.001148671224470753 0 -0.005113382434587849 -0.002492870010859606 0 
0.0682903286403244 -0.001148671224470753 0 -0.005113382434587847 -0.03671721527146944 0 
0.02218540425059174 -0.001148671224470753 0 -0.005113382434587849 -0.002492870010859606 0 
0.04925635155726323 -0.001148671224470754 -0.002361880484758352 -0.00511338243458785 -0.00474694067825151 0 
0.02218540425059174 -0.001148671224470753 0 -0.005113382434587849 -0.002492870010859606 0 
0 0.004112041641952741 0 0 0 0 
0 0.03395229864958463 0 0 0 0 
0 0.004112041641952741 0 0 0 0 
0 0.004112041641952741 0 0 0 0 
0.03184918420282901 -0.0009874253807149497 -0.004778570585789819 -0.01458895001572322 -0.0329527239046789 0 
0 0.004112041641952741 -0.001421910324512574 0 0 0 
0.06182524407090087 -0.1786020116347925 -0.04520680584296247 0.09910564052266746 -0.02799972364624696 -0.005566867736661299 
0 0.004112041641952741 0 0 0 0 
0 0.004112041641952741 0 0 0 0 
0.002815297968254767 0 0 -0.002407896477274959 -0.006664977467273177 0 
0.002815297968254767 0 0 -0.002407896477274959 -0.006664977467273177 0 
0.002815297968254767 0 0 -0.002407896477274959 -0.006664977467273177 0 
0.03766904256126484 -0.02100366194575132 0 -0.002407896477274959 -0.006664977467273177 0 
0.06846316890193878 -0.0713748329792686 -0.01032998191815507 0.02651746867127848 0.001790696796575261 -0.01380014454095163 
0.002815297968254767 0 0 -0.002407896477274959 -0.006664977467273177 0 
0.002815297968254767 0 0 -0.002407896477274959 -0.006664977467273177 0 
0.02223486725509069 0 0 -0.002407896477274959 -0.01895544491408846 0 
0.007206676371072031 -0.007204502641589818 -0.007769590697688023 -0.002407896477274959 -0.006664977467273177 0 
-0.0141151458181891 0.03072721634531893 0 -0.002407896477274959 -0.01304889260533037 0 
0.002815297968254767 0 0 -0.002407896477274959 -0.006664977467273177 0 
0.002815297968254767 0 0 -0.002407896477274959 -0.006664977467273177 0 
0.00281529796825477 -0.07062832093167665 -0.0004061975497007045 -0.002407896477274959 0.09403704056107617 0 
0.009486229268036194 -0.001262790817114923 0 -0.002407896477274959 -0.006664977467273177 0 
0.002815297968254767 0 0 -0.002407896477274959 -0.006664977467273177 0 
0 0 0 0 0 0 
0.05081101175012959 0 -0.03162267183411895 0 0 0 
0 0 0 0 0 0 
0 0 0 0 0 0 
0.01395268767876312 -0.00755524593853114 0 0 0 0 
0.05726001278468926 -0.0690835199865054 -0.001922187085497342 -0.06174962285936687 0.08595907395350692 -0.0002307000499203152 
0 0 0 0 0 0 
0.02076049243660455 0 -0.03162267183411895 0 0 0 
0.06010452735503603 0.001428528255461373 -0.001231878293128914 -8.131516293641283e-20 -0.02061121517056803 0 
0.0003630006015453792 -0.004416563849661647 2.168404344971009e-19 0 0 0 
0 0 0 0 0 0 
0 0 0 0 0 0 
0 0 0 0 0 0 
0.03266135557541826 0 0 0 -0.03189163374505029 0 
0 0 0 0 0 0 
0.00360492851528663 0.04990762001483799 0 -0.01143856465677366 0.01130831322338582 0 
0 0.03522803396294606 0 0 -0.004779790745471014 0 
0.0007644091510589942 0.01827111920744011 0 -0.008053219614741652 -0.01686487124710293 0 
0 0.01827111920744011 0 0 0 0 
0.02759597564893113 0.003544474707784184 -0.01185648737906123 0 -0.02392955176759871 -0.00193674112174144 
0 0.01827111920744011 0 0 0 0 
0 0.01827111920744011 0 0 8.673617379884035e-19 0 
0 0.01827111920744011 0 -0.008053219614741649 0 0 
-0.03088254792395078 0.04990762001483799 0 -0.007185134925181801 0.01130831322338582 0 
-0.08334540206481239 -0.07718883045048366 -0.01187458931851965 0.09468664274386016 -0.01908624522704826 0 
-0.002681394132987837 0.03392486636938435 0 0 0 0 
0 0.01827111920744011 0 0 -0.009235954314358348 0 
0 0.01827111920744011 0 0 0 0 
0.004339003220875225 -0.0001635246350440927 0 0 -0.004989169908959045 0 
0.002048144792272851 0 0 0 -0.004989169908959043 0 
-0.01432647225866111 -0.04749341348542206 0.0810885041932056 -0.08532728781078773 -0.005150159955138864 -3.035766082959412e-18 
0.005870773684613317 -0.01363211578043791 -0.004276887951773905 -0.003919709308103131 0.04093444964269626 0 
0.004339003220875225 -0.0001635246350440927 0 0 -0.004989169908959045 0 
0 0 0 0 0 0 
0.06466187432924571 0.06402108756709636 -0.05604906022748096 0.007586298108298481 -0.09517810178631148 0.0002691270578152492 
0 0.05017424851563026 0 0 0 0 
-0.09532328626043794 0.1168015199429632 0.02416145585880865 0.001964188124484835 0.0720679049800203 0.004423447935373132 
0.03692667359693171 0.03593377989033209 0.0003030853925684318 -0.001072725051730624 -0.0570114377649391 1.626303258728257e-19 
-0.04351074485283818 0.05756950444704175 -0.018406497893586 0 -0.008329955950470692 4.336808689942018e-19 
0 0 0 0 0 0 
-0.1471302679514212 0.01489698772529352 0 0.04936319195627088 0.008898766283058707 0 
0.01535755331778227 -0.02300052948236826 -0.0001512835178772171 0 -0.004056670129451271 0 
0 0 0 0 0 0 
0 0 0 0 0 0 
0.1049843268937273 -0.09027350190806104 -0.0122301653565093 -0.05159236691284227 -0.009342313804642757 -4.336808689942018e-19 
0.0278577360419202 -0.06559090096338296 -0.01238929212113395 -0.04532300369195048 -0.01005363070587421 -0.02210005015831912 
-0.01726907024137893 0.000499338588642531 -0.008864419958866655 -0.02224615217790112 -0.04043844534676487 -8.673617379884035e-19 
0 0 0 0 0 0 
0 0 -0.006411691712074274 0 -0.00175856538713833 0 
0.139078155325445 -0.1478869874882389 -0.00597760040905967 0 -0.02818183125889936 0 
0.02179572631693524 -0.01667179482340328 -0.00597760040905967 0 -0.04006496960697399 0 
0.02614451124511723 -0.4048723885056353 -0.06296516875106224 -0.01442235961479077 0.1474982029641079 -0.07896950425302723 
0.1943488448466575 -0.1438653055342988 -0.03789852966880612 -0.009276209899429257 -0.07708351395837383 0 
0.06389778357269185 0.01591361725108084 -3.317366256764796e-06 -0.01203327631304287 -0.05662575739584043 -0.03598829104825546 
-0.1064006664107345 0.04877840647480851 0.07760259195539522 0.009758960391563794 -0.02982433269657676 0 
-0.0631386421705251 0.09303383495826351 -0.02871818159026223 -0.05463275755309233 -0.05305618154246679 0 
0 0 0 0 0 0 
0.1628714730181813 -0.01541204910025131 -0.02949029658366527 -0.05437419243167501 -0.1167890607766705 -0.07151651252941582 
0.1628714730181813 -0.01541204910025131 -0.02949029658366527 -0.05437419243167501 -0.1167890607766705 -0.07151651252941582 
0.1628714730181813 -0.01541204910025131 -0.02949029658366527 -0.05437419243167501 -0.1167890607766705 -0.07151651252941582 
0.0711585162048381 -0.03260592675349454 -0.001391277777961704 0 -0.03536959595848263 0 
0.0255066370606652 0 0 0 -0.0318166819555137 -2.168404344971009e-19 
0.07150133662850443 -0.001628661826045845 -0.03589804262603483 0.02388537247327284 -0.02982433269657676 0 
0.00947252797852133 0.02165054660028168 -0.004619135196204723 -0.00958818416206854 -0.01342073951932347 -0.009904076160561569 
0.2202911700501499 -0.06425336382774979 0.03934644849671501 -0.01433220119885927 -0.1614612624225278 -0.05940317357775049 
0.03103058725867517 -0.004337842068667681 0 0 -0.02302792211721131 0 
-0.1124313190613764 0.1034171240225733 -0.0138705093295393 -2.168404344971009e-19 0.007928155607955557 -8.852161379698731e-07 
0.004722869091659097 -0.05661421850858767 -0.03827756315618415 -0.0506226542171707 0.06968268503846289 -0.02598117533437424 
-0.08787436880524242 0.08688642250124193 -0.03439824317493336 -0.001741092108106169 -0.01879981774437285 0 
0.02037754112174149 -0.02300052948236826 0 0 -0.02243897306320511 0 
0.03105834712801731 -0.009133240676119189 0 0 -0.006795593150531801 0 
0.06609009252867579 -0.03535145647721698 -0.001391277777961704 -0.001741092108106169 -0.03536959595848263 0 
-0.09903159262703026 0.01272502066853106 0.1295078367596616 0.05954409138386469 -0.08418143197106567 -0.04089747188615437 
0.211871307089246 -0.1439945334486989 -0.07764011264444923 -0.0001271283318821792 -0.07648495220589774 -0.01068173049950744 
0.01887469223505863 0.1201920250549791 -0.06899811596010108 -0.1127557980154068 -0.02830123853514812 -0.03355746180723697 
-0.02379198061748832 0.06570902689650074 -0.03064597986028928 0.03674798651316744 -0.02542269939164965 -0.005426400487388017 
-0.002356935195661063 -0.0591720450266142 0.05549604303624683 0.01564873468903516 -0.03940511233181734 -0.005426400487388017 
-0.1352188398350189 0.01740926053324395 0 0 0 -0.003028139890168633 
0.04008838399663155 0.03855151126546909 -0.06310993477657655 0.01662251368355688 -0.03940511233181736 -0.005426400487388017 
-0.0008663434932154037 0.06570902689650071 -0.05944525814327681 0.03249025270235668 -0.02912417266334293 -0.005426400487388017 
-0.06170971629486072 0.03200501794097316 -0.04434921333387556 -0.03024701405858204 -0.0001642241280504699 -0.005426400487388012 
-0.04448141124016958 0.03950590557724721 -0.01922139141300531 -0.06740909842862014 -0.01879186055028478 -0.02369427306219436 
-0.08505687181175649 -0.02524651162242424 0.08318716044485114 0.04295832211066772 -0.005436239959884251 -0.0002233603086279511 
-0.01017883588852699 0.03358500836232723 -0.01416974102067096 -0.006295157192290871 -0.002222529945169287 -0.0002233603086279511 
-0.1121330980311499 0.1535566874080843 -0.03471905931621942 0.01110886927211958 0 -0.0002233603086279511 
-0.08505687181175649 -0.02524651162242424 0.08318716044485114 0.04295832211066772 -0.005436239959884251 -0.0002233603086279511 
-0.04448141124016958 0.03950590557724721 -0.01922139141300531 -0.06740909842862014 -0.01879186055028478 -0.02369427306219436 
-0.1168133736191388 -0.02135034519194218 0.02970823765020773 -0.005282314920114542 0.07840228386497436 -0.003730496397579042 
0.1251190985586257 0.05873218511935969 -0.03174723953931793 -0.1492125735077185 -0.08986777981802727 -0.02773250510228659 
-0.04254451600857435 -0.02956769130278667 -0.03828518596704125 0.0355651108114381 0.03987977740585952 -0.08376085711478702 
0.04384703150869983 -0.01810442158120341 -0.005258540706434466 -0.01149843579130971 0.006282809976011766 0 
-0.04811255658395526 0 0.04059989149782697 -0.007945389960207619 0 0 
-0.1222979412860777 0.01579372937206824 0.04372766636485116 0.02465247311297972 -0.004011178684990682 0 
0.07839250330149938 -0.09923425028433765 0.05708432396353282 0.04555767695211223 -0.09276797159222461 -0.03950631914026549 
0.02732395693372132 -5.421010862427522e-19 0.03647943094986952 -0.01168353278914383 -0.04544585782723781 0 
-0.1316823849137689 0.2054262270064373 0.01737350306603367 0.1206537640043917 -0.08670593957425587 -0.08091001951652674 
0.002682548950832586 0 -0.004026662413305551 -0.007945389960207619 0 0 
-0.2034336042935251 0.04073017280434776 -0.02726316526255817 0.2374476652470998 -0.09325395105197658 0 
0.1188771233406635 -0.03639847110882685 0.02199867015695499 -0.02777423297241215 -0.01816551211742881 -0.02731882152158427 
0.0408394124170005 -0.04049568795789269 0.0235523936389252 -0.01040491621783845 -0.01115207347861267 -0.006789328682303804 
0.0206395564715386 -0.0002727504455264402 0.0235523936389252 -0.008765708120862171 -0.0003048790191152697 -0.006789328682303804 
0.002682548950832586 0 -0.004026662413305551 -0.007945389960207619 0 0 
0.002682548950832586 0 -0.004026662413305551 -0.007945389960207619 0 0 
0.002682548950832586 0 -0.004026662413305551 -0.007945389960207619 0 0 
0.1416560339704291 -0.1301928155892258 -0.007917773708573632 -0.01004127800527597 -0.04859963936358802 0 
0.002682548950832586 0 -0.004026662413305551 -0.007945389960207619 0 0 
0.002682548950832586 0 -0.004026662413305551 -0.007945389960207619 0 0 
0.06352204784654063 -0.03257620457147298 -0.004026662413305551 -0.008795057485124481 -0.03484604696114724 0 
0.06450508086311829 -0.03555106130365634 -0.03467874683780618 -0.007945389960207619 0.008676319316752839 -0.002325118153876701 
0.002682548950832586 0 -0.004026662413305551 -0.007945389960207619 0 0 
-0.02331138426619035 -0.02429941829747068 -0.005652961393343734 0.03466403093263917 -0.01421074078937843 0.01486155407456365 
0.002682548950832586 0 -0.004026662413305551 -0.007945389960207619 0 0 
0.002682548950832586 0 -0.004026662413305551 -0.007945389960207619 0 0 
0.009558825523156249 0 -0.00402666241330555 -0.02474570150046857 -0.01967608313758061 0 
0.002682548950832586 0 -0.004026662413305551 -0.007945389960207619 0 0 
0.1416560339704291 -0.1301928155892258 -0.007917773708573632 -0.01004127800527597 -0.04859963936358802 0 
0.002682548950832586 0 -0.004026662413305551 -0.007945389960207619 0 0 
0.06093857920725437 0.1004658428063221 -0.007708378728691066 -0.07671450764267156 0.008741513961678344 0 
0.04287139205668593 -0.01486626432233987 -0.00720668487531393 -0.0210507028881641 -0.002846936473280479 -0.003009208073914465 
0.03028429897825903 -0.02344440926007084 -0.005652961393343734 -0.007945389960207619 -0.002846936473280479 0 
-0.1126545682335316 0.05265079521509099 0.00657997241617304 0.04615718260639542 0.08933705048958292 -0.01098271064731404 
0.008128944944058879 -4.336808689942018e-19 -0.005652961393343734 -0.007945389960207619 -0.0003048790191152697 0 
0.06167526367310908 -0.09234350047130421 -0.04772880268436149 -0.0832285065640968 0.02333742298192904 -0.06576718806097717 
-0.02948057028388371 -0.02776024939056552 0.03912387539932638 0 0 0 
-0.155984931226881 0.01612760239340877 0.04945841529852602 -0.001345384070659564 0.02417126405722192 0.04722488314952149 
-0.06847898618261214 -0.001335073039801317 0.07147147389176228 -0.06164938499933818 -0.001182747911658706 0.06619065148145262 
-0.1286284440819412 0.02842682685985704 0.03788115363186079 -0.02601521738110404 0.02627981274232175 0.1802949409318125 
-0.093943804388223 0.1499655547517521 0.03624159047999419 -0.006094548958399336 -0.0002488961771728968 -0.02252889101459578 
-0.03757689047793115 -0.01367742216345039 0.02192841699850234 -0.01296168736407832 0.02007968822189499 -0.04762183638155675 
-0.1112947902465321 0.02820250453587951 0.09901910109855333 -0.0002297521871578021 -0.005791592804237571 -0.02768908168197569 
0.0322588027729912 0.01211831724493865 -0.05054118260989879 -0.04312231236494734 -0.05717408482397812 -0.05510354873837613 
0.009543708139282413 0.04831001159766946 0.03791983885246102 0.01732123132461566 -0.07337509909583366 -0.04343680146498629 
-0.1206525519046295 0.01914820681005585 0.1488255686386996 0.08945078547107148 0.04977814680072321 -0.03645077986128912 
-0.09581918518285569 0 0.1242057784770367 0 0 -0.006789328682303804 
-0.03988905571563679 0 0.03867175663996214 -0.001409337558400343 0 0 
-0.05079510553478794 0 0.04882763193047883 0 0 0 
0.007748184264895676 -0.02581986357674798 0.08418632920835072 -0.0355646897769174 0.01129819196466098 -0.009046242783167371 
-0.1060006936733531 -0.02203545009814757 0.09969438588879073 -0.01807716435048929 0.02029846635335432 0 
-0.005419360458536675 0.001769397536975574 0.008904694813658614 0.01073539796031059 -0.07637607235112209 0 
-0.01344859728954145 0.01636224245010693 0.02559773600717029 -0.002693240880764468 0.002753394163050954 -0.01823160201169428 
-0.05079510553478794 0 0.04882763193047883 0 0 0 
-0.01731042449308224 0 0.03353499835753308 -0.004905420607089043 0 0 
-0.03679901201948014 0 0.02730683445912741 0 0 0 
0.06685133914997396 -0.01970214316607474 -0.004311647737985857 -0.01950496111410353 -0.02052747864863313 -0.02145463728103304 
-0.0107079329149326 0 0.03667914028562821 -0.004905420607089043 -0.00829633996735442 0 
-0.05079510553478794 0 0.04882763193047883 0 0 0 
-0.08564582130359089 -0.0105366516272584 0.0290587843092267 0 0.0189917200498422 -4.336808689942018e-19 
-0.05079510553478794 0 0.04882763193047883 0 0 0 
-0.07132762917887489 1.084202172485504e-18 0.04882763193047883 0.009800136536002585 0.003032310671862588 0 
-0.05079510553478794 0 0.04882763193047883 0 0 0 
-0.05079510553478794 0 0.04882763193047883 0 0 0 
0.008991132835237709 -0.02576386007353625 0.04241594021840456 -0.006132773743679128 -0.01049153906323282 -0.01465497136885577 
-0.05079510553478794 0 0.04882763193047883 0 0 0 
-0.110925620164195 -0.006134132044843835 0.1629057370023134 0 -0.005791592804237573 -0.0181736035167491 
-0.07708035882021852 -0.09326738236897647 0.1034902985133294 0.1418638413926927 -0.01044263329608723 -0.0181736035167491 
0.004180211995622426 -0.03429348568788199 0.02864677690087753 -0.009907650605459386 -0.03968829332487583 0 
-0.03752875073621794 0.04772486273963306 0.09124692337203869 0 -0.01412328501677608 0 
-0.09398687732407937 0.1023591623731122 0.04893100689104529 0.1177441275076977 -0.01075742880602075 -0.01195739242093702 
-0.06773602508782917 0.05587947499555226 0.1067298085613652 0.07403949689043815 -0.06470778712426187 -0.02083474567536155 
0.07373441062509715 0.006829257552800076 -0.06545125062736448 0.02483269568194627 -0.03492484185525071 0 
-0.009986115942828735 -0.0134314923038351 0.03138488192976248 -0.004456419895375764 0 0 
-0.07343002902053464 0.04176203663671545 0.01595619010108348 -3.686287386450715e-18 -0.02549726912212707 0.00807222539225984 
0.03455113157432202 0.04596640048120829 0.006401320105581186 -0.01811784440667765 0.01153123671452924 -0.03679659004673794 
0.05700719712950882 -0.001192132640197959 0.01600035024197502 -0.009003446794043479 0 -0.006789328682303804 
0.03257311068606729 -4.336808689942018e-19 0.02814884188682565 -0.01210494568942993 0 -0.006789328682303804 
-0.05209947511442593 0.0247425733038739 0.02814884188682565 0.03986178624782935 0.04782318713216682 -0.006789328682303804 
-0.01918920690208005 0.04556222801771667 -0.02708362801445625 0.1104967594220612 0.04416158820609384 -0.01303427000586128 
-0.02182936699547049 -0.002357591468575394 0.007730871650163125 4.336808689942018e-19 0.008030216851672739 -0.007168257247242803 
0.01887517504564849 0.008088286522297193 0.02300274361597708 -8.673617379884035e-19 -0.02724510590825671 -0.006789328682303804 
0.01795700752070607 0 0.02814884188682565 0 0 -0.006789328682303804 
-0.04619635494270148 -0.02076281175626619 0.02178208364440941 -0.03041783191559978 -0.003831581236246212 0.1190131127008403 
-0.04619635494270148 -0.02076281175626619 0.02178208364440941 -0.03041783191559978 -0.003831581236246212 0.1190131127008403 
0.02344599528530238 0 -0.01502463816909065 0 0 0 
0.02344599528530238 0 -0.01502463816909065 0 0 0 
-0.03252457086957467 0.03648032939411353 -0.01502463816909065 0 -0.005783018003255281 0.01486155407456366 
0.04170815745469809 -0.003099105141671224 -0.02239997551573324 0 -0.01700851376528598 0 
0.04170815745469809 0 -0.01502463816909065 0 -0.004719956039673727 0 
-0.1291235669753579 0.1445720304152851 -0.04798570669605184 -0.02339928693572708 0.1777807856033059 -0.03300389864961531 
0.02344599528530238 0 -0.01502463816909065 0 0 0 
-0.03928948510209244 -0.002752952930756138 0.0217820836444094 -0.03041783191559978 0.01902770363500697 0.1190131127008403 
0.02344599528530238 0 -0.01502463816909065 0 0 0 
0.02344599528530238 0 -0.01502463816909065 0 0 0 
0.07454077379367199 0.05002726730338211 -0.01524300453582347 0.00430139080879556 -0.03633783900458974 2.168404344971009e-19 
-0.0540757945425917 0.04469060041674038 -0.02434669235874612 0.04079756199239006 -0.004095979508245025 0 
0.02344599528530238 0 -0.01502463816909065 0 0 0 
-0.007808143062975946 0 -0.02485328000442459 0 0.01204512888235114 0 
-0.04846824091304869 -0.006134132044843834 0.06413142052880234 0 -0.005791592804237573 0 
0.06623888292616581 0.003399518854153082 -0.01502463816909065 0 -0.01918049044212208 0 
0.02344599528530238 0 -0.01502463816909065 0 0 0 
0.000830940242226982 -0.0006477577080594047 -0.02425938902474625 0.02549722347669964 -0.01031103442314072 0 
0.05010315016550711 0.03068598108148805 -0.03831490957494592 0.01352477359469141 -0.01905238439090316 -0.009567334091426242 
0.02344599528530238 0 -0.01502463816909065 0 0 0 
0.02344599528530238 0 -0.01502463816909065 0 0 0 
0.02344599528530238 0 -0.01502463816909065 0 0 0 
0.02344599528530238 0 -0.01502463816909065 0 0 0 
0.03547324685094804 6.505213034913027e-19 -0.02127846062672736 0.008433467750550058 -0.0239746568992068 -0.00388112517605514 
0.02344599528530238 0 -0.01502463816909065 0 0 0 
0.05968391968339158 -0.0042040484473745 -0.01979322151487628 -0.002711040267791575 -0.01869786257885065 -0.0212086717123651 
0.02344599528530238 0 -0.01502463816909065 0 0 0 
0.02344599528530238 0 -0.01502463816909065 0 0 0 
0.4747342143324338 -0.1893430257086873 -0.1545514379917952 -0.06654748578488333 -0.2005074244498487 -0.1476968815029515 
0.005446395993226311 0 -0.001626298980038181 0 0 0 
0.005446395993226319 -0.01951124102466226 -0.01521717244223367 0 -4.336808689942018e-19 0 
0.005446395993226319 -0.01951124102466226 -0.01521717244223367 0 -4.336808689942018e-19 0 
0.03446723515579193 0 -0.00162629898003818 -0.0003266761822578269 0 0 
0.005446395993226311 0 -0.001626298980038181 0 0 0 
0.005446395993226311 0 -0.001626298980038181 0 0 0 
0.02758722746770952 0 -0.008631572499541077 -0.006500536424700255 0 0 
0.005446395993226315 -0.000802093526286711 -0.001626298980038181 0 0 0 
-0.0007930942715878189 -0.0143206878750206 -0.03007962529790165 0.07069691692800253 -0.02318540743380604 0 
0.005446395993226313 0 -0.001626298980038181 0 0 0 
-0.06512319087238969 -0.04551357289094861 -0.01326742737883815 -0.02214594790985761 0.1343990825534218 0 
0.005446395993226311 0 -0.001626298980038181 0 0 0 
0.005446395993226311 0 -0.001626298980038181 0 0 0 
0.005446395993226311 0 -0.001626298980038181 0 0 0 
-0.03496272224091877 -0.001417677567217639 -0.001626298980038181 0.006732922331292992 0.04373712216673067 0 
0.04785622064725122 -0.002603411930243608 -0.01591464176613784 0.02745896229895448 -0.0009973708665341567 0 
0.005446395993226311 0 -0.001626298980038181 0 0 0 
0.03532606596973358 2.168404344971009e-19 -0.009716802981986336 -0.01809789824150584 -0.002290657165276943 0 
0.005446395993226311 0 -0.001626298980038181 0 0 0 
0.005446395993226311 0 -0.001626298980038181 0 0 0 
0.005446395993226311 0 -0.001626298980038181 0 0 0 
0.03446723515579193 0 -0.00162629898003818 -0.0003266761822578269 0 0 
0.005446395993226319 -0.01951124102466226 -0.01521717244223367 0 -4.336808689942018e-19 0 
0.01641263499172068 0 -0.006772397250886746 0 -2.168404344971009e-19 0 
0.005446395993226311 0 -0.001626298980038181 0 0 0 
-0.4409900325241262 -0.05103282673708966 -0.03942542679452658 -0.02203865605426727 0.4904228272378988 -0.02181374031372416 
0.1160207348272716 -0.03959044859530112 -0.02261882720379987 -4.336808689942018e-19 -0.03255121808416674 4.336808689942018e-19 
-0.09236599474530864 -0.03959044859530112 0 0 0.1572739855813616 0 
-0.4919259011079761 -0.02974011014460295 -0.005978151011249359 1.409462824231156e-18 0.4972399472252244 0 
-0.4919259011079761 -0.02974011014460295 -0.005978151011249359 1.409462824231156e-18 0.4972399472252244 0 
-0.2461453795684145 0 0 0 0.2299477540923479 0 
0.03417479969097867 -0.03959044859530112 0 0 0.02665265137115409 0 
-0.3815723689438225 0.4129402692270572 0.0006405737352195781 0.08290531785094239 -0.06977748966347155 -0.08901897448413014 
0.0874603205705342 -0.01690137872494646 -0.05250599926472924 0.08887385383441385 0.009077507909627443 -0.06931397119617612 
0.0004784203196992656 0.02689275827770785 -0.001838223479754724 -0.1770538024791654 -0.007710477230353158 -0.1204920817589899 
0.009321893016722651 0 -0.0005279008319133578 0 -0.02406140428274007 0 
0 0 0 0 0 0 
0 0 0 0 0 0 
0.05289622486987232 -1.301042606982605e-18 0 0 -0.017500615761793 0 
0 0 0 0 0 0 
0.05330239808942809 -0.005531363455944569 -0.01076794916876383 8.673617379884035e-19 -0.05428101351280807 0 
-0.01608252574794504 -0.04273266418067873 -0.02808017669467013 0.03007759684560728 0.07019228016968151 4.336808689942018e-19 
-0.1479285774492416 -0.1263671699141222 0.1748490332951269 -0.002793374079618228 0.07494776254332494 0 
0.1563661729003812 -0.09232285482695261 -0.01346052816726259 0 -0.02796192175777302 -0.005309772584925435 
0 0 0 0 0 0 
0.05371242705002178 0.02804314441791234 -0.06688673470477481 -0.04670292040190319 -0.1122296709594396 -0.09774524382190233 
0.1455021759051567 -0.05438991866481974 -0.09674363903415735 -0.09924067975980221 0.002211062075279195 -0.2166769563134186 
0.1477175562197199 -0.1287255162871941 0.05957598096805754 -0.08122456857076915 -0.01124942963147153 0 
-0.03346044243367161 -0.06317289322620095 0.0664481829640713 -0.0188211993449779 -0.01838396339040623 0 
0.008189048602647448 0 -0.03976243921281655 0 0 0 
0.1037623903355999 0.08068705682841622 -0.09793544942556932 -0.04716904130467433 -0.008096930502296384 -0.07439659772430413 
0.02132269967850548 -0.1787324729954508 -0.09138486765208198 -0.06316513600405924 0.1756559412724488 -0.004922712487627945 
0.1914989745784974 -0.09305907112384022 -0.05560438341256557 -0.0200197306137405 0 0 
0.09092336617331213 -0.1250847184257708 0.08160005469653248 -0.07809948454559927 0.01004413431804103 1.626303258728257e-18 
-0.2437202222661297 0 0.1534335873581603 0 0 0 
0.001586316113159244 -0.06240950506705914 -0.05387380180625433 0.02640213449015852 -0.02464804331516461 -0.0435285967462985 
0.08050941335526235 -0.00394327948642554 -0.04302137130736017 -0.005384435315587058 -0.002263904712799689 -0.01726591443424724 
0.07846577743186334 -0.05472192073195666 -0.04815326131346308 -0.07546936947337174 -0.01310589814877784 -0.04397663000043843 
-0.0641429966996906 -0.01017583680324514 0.1057226031576863 -0.01876545370084341 0.03147873489726749 0 
0.04343876705898558 -0.03306801833259956 -0.005859277268733009 0 -0.01051550391369633 0 
0.1012434339841302 -0.05446690479178295 -0.03364778415696414 -1.734723475976807e-18 -0.02356281054897714 -0.007937097021515538 
0.01248887931918297 0 -0.01341010657893123 0 0 0 
0.01248887931918297 0 -0.01341010657893123 0 0 0 
-0.05662350947995574 0.05058532498621283 -0.009325486055386802 -0.03286684680177285 0.01437474895270631 -0.03183714539267351 
0 0 -0.005859277268733009 0 0 0 
0.06533675209696703 -0.008313795365118013 -0.008111590279335647 0 -0.00404584969124139 0 
-0.09063743624932928 -0.01279908285416052 0.05717801958869997 0.05875767089479603 -0.0002076957963416294 0 
-0.1045442857820256 0.06548106837930488 -0.008388610851799816 -0.03488475394364319 0.02259261273197904 0 
0.06349255876361889 -0.005439925805143644 -0.01909509466906507 -0.02442545940222376 -0.01975086607122072 0 
-0.01698745966565956 -0.009986100301756253 -0.1163811672924182 0.0006949030044566861 0.04152465281750853 -0.002214496021126147 
0.01248887931918297 0 -0.01341010657893123 0 0 0 
0.1025824396422207 -0.0456271023690601 -0.03364778415696413 -0.07421642985839949 -0.02356281054897714 -0.007937097021515542 
0 0 -0.005859277268733009 0 0 0 
0 0 -0.005859277268733009 0 0 0 
0.02254929728388309 0 0.03265128739110385 -0.004905420607089041 0 -0.006789328682303805 
0.02254929728388309 0 0.03265128739110385 -0.004905420607089041 0 -0.006789328682303805 
-0.5149951031269983 -0.004859831071861268 0.04479977903595447 2.168404344971009e-19 0 0.3843553200771504 
-0.01093538375782261 0 0.04479977903595447 0 0 -0.006789328682303804 
-0.01093538375782261 0.005281707242601899 0.04479977903595447 0 -0.01971425111887177 -0.006789328682303804 
0.01030406102442026 0 0.02794216481404816 0 -0.003800602742269944 -0.006789328682303804 
0.01030406102442026 0 0.02794216481404816 0 0 -0.006789328682303804 
-0.01093538375782261 0 0.04479977903595447 0 -0.01361050115712344 -0.006789328682303804 
0.1403901147737383 -0.1701261159167491 0.05318054676869904 -0.1609879008651804 0.02439314813627981 0.1080111076686435 
-0.5149951031269983 -0.004859831071861268 0.04479977903595447 2.168404344971009e-19 0 0.3843553200771504 
0.02254929728388309 0 0.03265128739110385 -0.004905420607089041 0 -0.006789328682303805 
-0.01093538375782261 0 0.04479977903595447 0 0 -0.006789328682303804 
-0.0892012385444652 0.07639422057617851 0.04384630371375174 0 -0.004613837286315604 -0.006789328682303804 
-0.06351671334602453 0 0.04464921659505341 0.0009984333025048195 0 -0.006789328682303804 
-0.119533738936205 0.1334729986868333 0.02230181407549067 -0.0006763767422355861 -0.001208573196594897 -0.006789328682303804 
-0.01093538375782261 0 0.04479977903595447 0 0 -0.006789328682303804 
-0.01093538375782261 0 0.03764178784736759 0 0 -0.006789328682303805 
0.2240151008747414 -0.0119312195686189 0.005347463516058476 -0.03313722473058589 -0.143062284427944 -0.02988944162267882 
-0.01093538375782261 0 0.04479977903595447 2.168404344971009e-19 -0.008818581787428302 -0.006789328682303804 
-0.01093538375782261 0 0.04479977903595447 0 0 -0.006789328682303804 
-0.01093538375782261 0 0.04479977903595447 0 0 -0.006789328682303804 
-0.01093538375782261 0 0.04479977903595447 0 0 -0.006789328682303804 
-0.006710991337542545 -0.06208898997388709 0.0426135687257703 -0.03955281837492649 0.03899348890780269 -0.01519521304618374 
-0.01093538375782261 0 0.04479977903595447 0 0 -0.006789328682303804 
0.04091527750030516 0.02879294756980762 -0.0169545366706986 -0.004317438620057281 -0.05279733136347253 -0.02150049758481253 
-0.01093538375782261 0 0.04479977903595447 0 0 -0.006789328682303804 
-0.01093538375782261 0 0.04479977903595447 0 0 -0.006789328682303804 
0.0624508060757222 -0.02333604573602233 -0.0304823030854639 -0.01046489296787534 -0.03277009868414942 0.05981978972044681 
0.0624508060757222 -0.02333604573602233 -0.0304823030854639 -0.01046489296787534 -0.03277009868414942 0.05981978972044681 
-0.1375353177323504 0.01486476689559449 -0.01864891840809508 0.02362435178308992 0.006585245073795835 0.09522845439591177 
0 0 -0.004201078019346298 0 0 0 
0.05776485452285136 0.03934837899787028 -0.03225077774783144 0.01800073854358333 -0.1103401417539946 0.04205105705219336 
-0.02490138941069372 0.02103249562786632 -0.02065814206222051 0.005478886338669467 -0.02881243323345195 0.04226666985831454 
0.1078911981047367 -0.1240763901058897 -0.0640739302149097 -0.05171038102603564 0.08939964080844862 0.04217737320191517 
0.1025836787160042 -0.1319504962532745 0.02253342829752408 -0.02721775773154719 0.005426133176712556 -0.03564400368383419 
0 0 -0.004201078019346298 0 0 0 
0 0 -0.004201078019346298 0 0 0 
-0.1375353177323504 0.01486476689559449 -0.01864891840809508 0.02362435178308992 0.006585245073795835 0.09522845439591177 
0.04612843849023838 -0.008237143837392141 -0.03048230308546387 -0.01046489296787534 -0.03277009868414944 0.05981978972044681 
0.08974535404645199 0.04443817692143315 -0.05718979615198319 -1.734723475976807e-18 -0.01191069168388434 -0.01618922756240243 
0.0006153993821586623 0 -0.004201078019346298 0 0 0 
0.1465560739106753 0 -0.1054145590726778 0.02174184090424747 -0.04791560568887749 0 
0 0 -0.004201078019346298 0 0 0 
0 0 -0.004201078019346298 0 0 0 
0 0 -0.004201078019346298 0 0 0 
0 0 -0.004201078019346298 0 0 0 
0 0 -0.004201078019346298 0 0 0 
0.08372193225113161 -0.02346766077333368 -0.03431748524170187 -1.734723475976807e-18 0 0 
0.08412775259204475 -0.08191075557981166 -0.04798498826450188 -0.001349650147096313 -0.02721124056737774 0 
0.01764581995499672 -0.001466123648188211 -0.004201078019346298 -0.004172245082101775 -0.004366210313546973 0 
0.005487813793169454 0 -0.008450004049421589 0 0 0 
0.2191249843287228 -0.09886986147775459 -0.05163642845712487 -0.03569268498432161 -0.01159238072440414 0 
0.2155286755393132 -0.2060454641950071 0 -0.07456242270845807 0 0 
-0.01903232748514223 -0.01422144713810981 -0.0006188918756892914 0 0.02088259362111223 0 
0.01788676048423939 -0.01422144713810981 0 0 0 0 
0.06311445786459481 -0.02489277469220318 -0.00251187616489101 -0.007366999583696868 -0.02948939537476245 0 
0.06702683004041225 -0.02489277469220318 -0.004391529088723048 -0.007366999583696868 -0.02948939537476245 0 
0.03186653816064532 -0.0139294564642209 0 0 0 0 
0.0002582625081024825 -0.003258128910127544 0 0 0 0 
0.0002582625081024825 -0.003258128910127544 0 0 0 0 
0.0002582625081024825 -0.003258128910127544 0 0 0 0 
0.0002582625081024825 -0.003258128910127544 0 0 0 0 
0.0002582625081024825 -0.003258128910127544 0 0 0 0 
0.03186653816064532 -0.0139294564642209 0 0 0 0 
0.03186653816064531 -0.0139294564642209 0 -0.007366999583696868 0 0 
-0.02203134977226429 -0.09184682431809033 -0.02943925402167605 -0.06454864800484859 0.2392665796871273 -0.03125294710535123 
0.05193479236695221 0.05635740281022091 0 -0.02235471990275981 -0.02085095682836471 0 
0.008719508509332986 -0.1681668334099655 0.04480078428238609 0.09901742882329795 0.01067881718730056 1.734723475976807e-18 
0.02274095438321548 -0.01405311737180265 -0.02968158416335297 -0.06691938105404568 -0.1589010400036523 0.1199019181386843 
-0.1533164760815194 -0.03328982877646163 -0.03579741160706003 0.2613170584899533 0.04603193343310039 -8.673617379884035e-19 
0.1021574767609143 -0.05884346395384304 -0.0008986717808970684 0.04312744787449016 0.006408271626568703 -0.1007612305724513 
-0.0627199196640682 -0.1345302088699473 -0.07590490999093774 0.07659519301250835 0.1149950229880173 0.1346686199588497 
0.1724798714276954 -0.08966536773128211 -0.02336269354721012 4.336808689942018e-19 -0.01752532632253544 -0.02396704904285839 
0.02944809216872792 0 0 -0.01057785122343852 0.01153312684337625 0 
0.04213937530066705 -0.007575610373671895 0 0 -0.0072185722599117 0 
0.09924801728491112 -0.06374472811522683 -0.01666717313634309 -0.006528557840788505 0.007901353768825168 0 
-0.1313599503029436 0.1606805505177538 0 0 -0.0072185722599117 0 
-0.2652445807110734 -0.01410244167812442 0.2087151346311872 0.06334418647574756 0.06742691128287058 -0.02210005015831912 
0.04213937530066705 0 0 0 -0.0072185722599117 0 
0.04213937530066705 0 0 0 -0.0072185722599117 0 
0.04213937530066705 0 0 0 -0.0072185722599117 0 
0.05349307985615973 0 0 0 -0.007218572259911691 0 
0.04213937530066705 0 0 -7.114464140693311e-05 -0.0072185722599117 0 
-0.03813094899946966 0 0.06102221043880966 0 -0.01415651212556251 0 
0.01035835584803131 0.007981565637426399 0 -0.001969287796724817 0.0184459902792662 0 
0.04213937530066705 0 0 0 -0.0072185722599117 0 
0.1582707072166523 -0.02958609438462371 -0.01180829279779597 -0.04111163097700293 -0.06546815265026411 0 
0.0988167196861586 3.351207633476086e-05 -0.02398912730072169 -0.02335597548165038 -0.01801002147587151 0 
-0.06875748484825206 0 0 0.05842965440683743 0.01787320305898519 0 
0.1131068169333232 -0.00961461109339188 -0.03203239042620582 -0.02709628181744221 -0.03391801591005209 0 
0.05602091772726352 -0.2388932536389529 0 0.2299799402425042 -0.05578417044906319 -4.336808689942018e-19 
0.04213937530066705 0 0 0 -0.007218572259911702 0 
0.04213937530066706 0 0 -0.01057785122343852 -0.0072185722599117 0 
-0.1217175993044828 0.08671024082317062 -0.0716669373023294 0.1158333822934604 0.04585611515566909 0.02710559453890549 
0.04213937530066705 0 0 0 -0.0072185722599117 0 
0.373364442078287 -0.1078763183318104 0.007482924000884529 -0.1157547671393612 -0.3528435925267498 -0.03064123667684096 
0.04329023725003662 -0.01028209271024044 -0.003227979324961285 4.336808689942018e-19 -0.007218572259911707 0 
0.04213937530066705 0 0 0 -0.0072185722599117 0 
0.06591101013200776 -0.01282471689384196 0 0 -0.008836501253705938 0 
-0.1392831279744883 -0.03305813696694803 -0.01350575645867553 -0.001612398514084822 0.1885622771003772 4.336808689942018e-19 
0.07554274119271361 -0.001487053248967833 -0.01409994920666832 0.02574528801094129 -0.01701518028999532 0 
-0.1073062072578418 0.01602721705490534 -0.008226898120559361 0.1366509946549407 -0.06543046387064806 -0.00405708857596603 
0.04213937530066705 0.01640930604840103 0 0 -0.0072185722599117 -0.006369302265584641 
0.04213937530066705 0 0 0 -0.0072185722599117 0 
-0.05516173887636697 0.03444564291395758 0.05764004311002978 -0.01205503771498856 0.02191944070762381 1.734723475976807e-18 
0.04213937530066705 0 0 0 -0.0072185722599117 0 
0 0 -0.004277187053587131 0 0 0 
-0.02592161554265216 -0.03695725557909219 0.0654546383045618 -0.06093213049077672 0.02376855207844085 -0.05795315003009206 
0.2775135161476965 -0.08106013691443309 -0.05188470200260536 -0.07014037097116546 -0.1626228369591026 -0.06596059719984693 
0.08125100904882936 -0.09173494874864205 -0.008877353606908717 0.02604029230542653 0.03643554757625876 -0.001167370320033373 
0 0 -0.00427718705358713 0 0 0 
0.1040700361139876 -0.04298840317262808 -0.04031570155775861 -0.005589342066115007 -0.02848274018184179 -0.01623891132548207 
0.1040700361139876 -0.04298840317262808 -0.04031570155775861 -0.005589342066115007 -0.02848274018184179 -0.01623891132548207 
0 0 -0.00427718705358713 0 0 0 
0 0 -0.00427718705358713 0 0 0 
-0.03963604981429628 0.06057142528796915 0.1070556812370313 -0.03356174980622944 -0.02714990386480208 -0.02962264937154728 
0.04265499834933577 -0.0113952978134725 -0.04031570155775861 -0.005589342066115007 -0.02848274018184179 -0.01623891132548207 
0.0886542751320713 -0.08026207613011191 -0.02644101404187208 0.006630215044956505 -0.1021705241603227 -0.03252870395028516 
-0.0140500138533591 0.02720294389203982 -0.00427718705358713 -0.00408458124069053 -0.01552249541537822 0 
0.007013835342363823 -0.01552261894047598 0.001916594417174499 -0.02098252561870434 0.002693370977339809 -0.02630119503541816 
-0.002582076124152832 -0.1846757292304508 0.09459233112974541 0.00489152746133387 -0.0003299168150861538 0 
-0.130452544473762 0.1665624807018396 -0.02005570460775289 -0.003654091410700578 -0.06245810883420945 0 
0.1435881687791599 -0.01968365493195287 -0.02005570460775289 -0.02058017474095518 -0.01841349103122146 -0.02703324655759849 
0.0185773829895297 0 -0.02005570460775289 0 0 0 
0.1484509939803317 -0.008043941639436286 -0.02845422408921979 -0.01274585725900072 -0.103423132761058 0 
0.05110202217367618 -0.2279719517216074 0.1091366689950212 0.002205117581604028 0.0009939997332123118 0 
-0.03789486579004615 0.03186437338871551 -0.02005570460775289 -0.003654091410700582 -0.004963172606627712 0 
0.0185773829895297 0 -0.02005570460775289 0 0 0 
0.01762849797613689 -0.01096331822798226 0 0 0 0 
0.01762849797613689 -0.01096331822798226 0 0 0 0 
0.01762849797613689 -0.01096331822798226 0 0 0 0 
0.01762849797613689 -0.01096331822798226 0 0 0 0 
0.01762849797613689 -0.01096331822798226 0 0 0 0 
-0.19408360286524 -0.1715243311802759 0.2820727208310527 0.02832075520227855 0.02828250836308366 -0.00142225545164144 
-0.4381721348766047 -0.1015012813825477 -0.02894748622279616 0.5243123856315878 -0.06056386064925097 0 
0.1522927259213765 0.02175031716843098 -0.01076746843807652 -0.0540057801732096 -0.1105562829517452 -0.0192674650407501 
0.07213964417105281 -0.158367801280477 -0.07303880137775993 0.1121167433452852 -0.08848025900437366 -0.009962426146290145 
-0.1308120599435048 -0.007926086397705385 -0.005646188262944525 0.1193905343557125 -0.04132470618633231 0 
0.01534943631330947 -0.04388597453053811 -0.03747130813776023 0.08657888989963805 -0.1159838854252132 -0.026893871075188 
-0.03141215594739778 -0.04648473497430487 0.09654032204971058 0.05104350587437124 -0.1323651615128806 -0.029701655844192 
-0.1217069811759076 -0.007926086397705367 0 0.1089340214382474 -0.03986758077709322 0 
0 0 0 0 -0.03986758077709322 0 
0 0 0 0 -0.03986758077709322 0 
-0.06724647744007038 0.04631101034712554 -0.02676738844856011 0.03364430275351535 -0.008558203940769784 -0.04941428118137597 
-0.126311037261699 0 -0.007488011644618502 0 0.08816456493473764 8.673617379884035e-19 
-0.1031968357379155 -0.002154258935866969 -0.007488011644618502 -0.1233432392855109 0.1613435991290769 0.02710559453890551 
0.1026038614314974 -0.1278819427892094 -0.001088767280383365 0.02069304240991519 -0.009467733323231878 1.734723475976807e-18 
-0.03181371127374432 0 0 0.02801049117710791 -0.03986758077709322 0 
0 0 0 0 -0.03986758077709322 0 
-0.0790758905956855 -0.02614595688593837 -0.05335175196595393 0.07457919558779702 -0.04820808169732681 -0.02497975534958068 
-0.09871425216919932 -0.007926086397705371 0 0.1046805917066555 -0.03986758077709322 0 
-0.1484533780681655 -0.05907149095762523 -0.008188321621820357 0.2092219139629966 -0.03986758077709321 1.734723475976807e-18 
-0.03098213444588676 0.0004993123187611606 0.0255616621603084 0.04813129311008198 -0.06827525633563034 -0.008976175805541825 
-0.1184385348866383 -0.05907149095762523 -0.01952008304968193 0.2092219139629967 -0.03986758077709322 1.734723475976807e-18 
0.07204587438984617 -0.03380907510036258 -0.002835031590886967 -0.06053802927351192 0.0207268903854429 0 
0.012488851569008 -0.04507985911851045 -0.08098068212778371 0.1004596622140563 0.02036325251699654 -0.05553093857502222 
0.04908619886124969 -0.02605018385220612 0 -0.04531262707490315 0 0 
0.04908619886124969 -0.02605018385220612 0 -0.04531262707490315 0 0 
0.01864933221614011 0.005399921682066297 -0.03028400988483541 0.07649572791906141 -0.02483357879531901 -1.301042606982605e-18 
0.09655327758766004 0.02354838293283934 -0.03229896625792195 -0.02977405350932563 -0.008670956925836949 -0.02456875292131125 
0 -3.469446951953614e-18 -0.00564618826294452 0 0 0 
0 0 -0.00564618826294452 0 0 0 
0.0250834373331998 0.04451759105989542 -0.01032298753107476 -0.03079072634633169 -0.07393561507225171 -0.007371306208346012 
